{"learner":{"attributes":{},"feature_names":["planned_deenergize","checklist_passed","supervisor_confirmed","crew_avg_experience_years","recent_hours_worked_48h","asset_voltage_level","asset_age_years","maintenance_last_days","region_hotspot_score","incidents_area_30d","weather_precip_1h","lightning_nearby_1h","V_rms_mean_5m","V_rms_std_5m","V_slope_5m","frequency_dev_std_5m","V_drop_count_15m","I_rms_mean_5m","I_inrush_count_1h","thd_percent_1h","arc_event_count_1h","ground_fault_flag_24h","transformer_temp_max_24h","leakage_current_max_24h","sensor_comm_loss_flag","job_type_inspection","job_type_maintenance","job_type_repair","shift_type_night"],"feature_types":["int","int","int","float","float","int","int","int","float","int","float","int","int","int","float","float","int","float","int","float","int","int","float","float","int","i","i","i","i"],"gradient_booster":{"model":{"gbtree_model_param":{"num_parallel_tree":"1","num_trees":"100"},"iteration_indptr":[0,1,2,3,4,5,6,7,8,9,10,11,12,13,14,15,16,17,18,19,20,21,22,23,24,25,26,27,28,29,30,31,32,33,34,35,36,37,38,39,40,41,42,43,44,45,46,47,48,49,50,51,52,53,54,55,56,57,58,59,60,61,62,63,64,65,66,67,68,69,70,71,72,73,74,75,76,77,78,79,80,81,82,83,84,85,86,87,88,89,90,91,92,93,94,95,96,97,98,99,100],"tree_info":[0,0,0,0,0,0,0,0,0,0,0,0,0,0,0,0,0,0,0,0,0,0,0,0,0,0,0,0,0,0,0,0,0,0,0,0,0,0,0,0,0,0,0,0,0,0,0,0,0,0,0,0,0,0,0,0,0,0,0,0,0,0,0,0,0,0,0,0,0,0,0,0,0,0,0,0,0,0,0,0,0,0,0,0,0,0,0,0,0,0,0,0,0,0,0,0,0,0,0,0],"trees":[{"base_weights":[-7.1259826E-1,-5.408485E-1,-8.546112E-1,-5.8283025E-1,7.6355055E-2,-8.6924785E-1,2.0990163E-1,1.5536971E-1,-6.130431E-1,9.438518E-1,-5.323261E-1,-9.7981197E-1,-7.129008E-1,-5.2318025E-1,3.8201872E-1,4.3202814E-1,-2.5286508E-1,1.7322747E-1,-6.369076E-1,1.7751245E0,-4.9837703E-1,1.3741565E-1,-2.9202366E-1,-9.9668413E-1,7.2742425E-2,-3.3097786E-1,-6.351374E-1,-4.3298785E-2,-1.942511E-1,-7.2176886E-1,3.8200158E-1,-5.1533765E-1,3.6988527E-1,-4.5968157E-1,-7.577596E-1,5.133054E-2,7.272125E-1,-1.8507129E-1,-4.3298785E-2,2.962455E-1,-2.2820978E-1,-1.0080488E0,-3.3593336E-3,-1.942511E-1,2.4024622E-1,-8.2925904E-1,-4.4224796E-1,-2.5677556E-1,-4.3298785E-2,-1.942511E-1,3.2557562E-1,9.847371E-2,-2.5677556E-1,-3.1555372E-1,-1.1234823E-1,-2.3891993E-1,8.203361E-2,-3.058285E-1,-3.2243647E-2,-2.6526502E-1,1.7822973E-1,-1.4981441E-1,2.4284033E-1],"categories":[],"categories_nodes":[],"categories_segments":[],"categories_sizes":[],"default_left":[0,0,0,0,0,0,0,0,0,0,0,0,0,0,0,0,0,0,0,0,0,0,0,0,0,0,0,0,0,0,0,0,0,0,0,0,0,0,0,0,0,0,0,0,0,0,0,0,0,0,0,0,0,0,0,0,0,0,0,0,0,0,0],"id":0,"left_children":[1,3,5,7,9,11,13,15,17,19,21,23,25,27,-1,-1,29,31,33,35,37,39,-1,41,43,-1,45,-1,-1,47,49,51,-1,53,55,-1,-1,-1,-1,-1,-1,57,-1,-1,-1,59,61,-1,-1,-1,-1,-1,-1,-1,-1,-1,-1,-1,-1,-1,-1,-1,-1],"loss_changes":[1.1660675E1,5.94413E0,4.3946686E0,4.8525314E0,8.626086E0,3.914734E0,4.1528735E0,5.1811285E0,3.9590988E0,8.922416E0,2.9935203E0,2.8012238E0,2.7664604E0,6.462067E-2,0E0,0E0,2.603784E0,5.6179523E0,3.920044E0,4.240261E0,4.6596825E-2,4.3548784E0,0E0,1.6831665E0,2.278479E0,0E0,3.2878609E0,0E0,0E0,2.517159E-1,3.5814571E0,1.672739E0,0E0,3.8102207E0,4.877632E0,0E0,0E0,0E0,0E0,0E0,0E0,1.4231567E0,0E0,0E0,0E0,4.241192E0,4.058565E0,0E0,0E0,0E0,0E0,0E0,0E0,0E0,0E0,0E0,0E0,0E0,0E0,0E0,0E0,0E0,0E0],"parents":[2147483647,0,0,1,1,2,2,3,3,4,4,5,5,6,6,7,7,8,8,9,9,10,10,11,11,12,12,13,13,16,16,17,17,18,18,19,19,20,20,21,21,23,23,24,24,26,26,29,29,30,30,31,31,33,33,34,34,41,41,45,45,46,46],"right_children":[2,4,6,8,10,12,14,16,18,20,22,24,26,28,-1,-1,30,32,34,36,38,40,-1,42,44,-1,46,-1,-1,48,50,52,-1,54,56,-1,-1,-1,-1,-1,-1,58,-1,-1,-1,60,62,-1,-1,-1,-1,-1,-1,-1,-1,-1,-1,-1,-1,-1,-1,-1,-1],"split_conditions":[1E0,1.68E0,5.24E-1,6E-1,-1.8E-1,1E0,2.95E0,2E1,5E0,2.45E-2,9.6E0,2.15E0,1.9E-1,6.5E0,3.8201872E-1,4.3202814E-1,2.2E0,2.76E-2,1.74E-2,8.1E-3,7.9E0,3.42E-1,-2.9202366E-1,5.3E1,1.01E1,-3.3097786E-1,9E0,-4.3298785E-2,-1.942511E-1,1.87E-1,1.17E2,8.9E-3,3.6988527E-1,5.9E-1,7.12E1,5.133054E-2,7.272125E-1,-1.8507129E-1,-4.3298785E-2,2.962455E-1,-2.2820978E-1,2E0,-3.3593336E-3,-1.942511E-1,2.4024622E-1,2.71E1,7.18E1,-2.5677556E-1,-4.3298785E-2,-1.942511E-1,3.2557562E-1,9.847371E-2,-2.5677556E-1,-3.1555372E-1,-1.1234823E-1,-2.3891993E-1,8.203361E-2,-3.058285E-1,-3.2243647E-2,-2.6526502E-1,1.7822973E-1,-1.4981441E-1,2.4284033E-1],"split_indices":[0,23,8,3,14,28,19,7,13,15,4,23,23,3,0,0,19,15,15,15,3,14,0,6,4,0,6,0,0,8,7,15,0,19,22,0,0,0,0,0,0,9,0,0,0,4,22,0,0,0,0,0,0,0,0,0,0,0,0,0,0,0,0],"split_type":[0,0,0,0,0,0,0,0,0,0,0,0,0,0,0,0,0,0,0,0,0,0,0,0,0,0,0,0,0,0,0,0,0,0,0,0,0,0,0,0,0,0,0,0,0,0,0,0,0,0,0,0,0,0,0,0,0,0,0,0,0,0,0],"sum_hessian":[4.960295E2,2.2668549E2,2.6934402E2,2.1230063E2,1.4384855E1,2.658718E2,3.4722066E0,8.184486E0,2.0411613E2,5.704339E0,8.680516E0,1.5265308E2,1.13218735E2,2.3561401E0,1.1160663E0,1.3640811E0,6.8204055E0,5.8283467E0,1.982878E2,3.4722066E0,2.2321327E0,3.7202213E0,4.9602947E0,1.5029694E2,2.3561401E0,1.6616987E1,9.6601746E1,1.1160663E0,1.2400737E0,3.8442285E0,2.976177E0,3.8442285E0,1.984118E0,8.23409E1,1.1594689E2,1.3640811E0,2.1081254E0,1.1160663E0,1.1160663E0,1.8601106E0,1.8601106E0,1.4856084E2,1.7361033E0,1.2400737E0,1.1160663E0,4.6502766E1,5.009898E1,2.7281623E0,1.1160663E0,1.2400737E0,1.7361033E0,1.1160663E0,2.7281623E0,8.928531E0,7.341237E1,1.1197866E2,3.968236E0,1.4657672E2,1.984118E0,4.5138683E1,1.3640811E0,4.8486885E1,1.6120958E0],"tree_param":{"num_deleted":"0","num_feature":"29","num_nodes":"63","size_leaf_vector":"1"}},{"base_weights":[-6.0791E-1,-4.433803E-1,-7.5389993E-1,-1.76633E-2,-5.067992E-1,-8.7337834E-1,-5.950431E-1,1.3637698E0,-1.948132E-1,2.7451965E-1,-5.3559005E-1,-8.931489E-1,1.182499E-1,-3.6623184E-2,-6.5697604E-1,6.707581E-1,-4.4203542E-2,-4.5800546E-1,7.404463E-1,-2.638444E-1,4.256903E-1,-2.559932E-1,-6.2354636E-1,-9.121102E-1,5.229211E-2,-2.6672003E-1,5.030234E-1,-8.0476266E-1,-4.1835314E-1,-6.769667E-1,5.275348E-1,5.8998185E-1,-3.4797233E-1,1.8198425E-1,-2.608971E-1,-7.7083486E-1,5.8898035E-2,-6.809437E-1,-1.5126283E-1,-4.6309182E-1,-9.469941E-1,2.550678E-1,-2.012866E-1,1.2124119E0,-2.3730941E-1,-8.659946E-1,3.1934193E-1,-3.1596627E-2,-7.326543E-1,-2.4516545E-1,1.4869285E-1,-1.1861675E-1,4.25765E-1,-2.2484782E-1,1.1819429E-1,2.037342E-1,-3.0020496E-1,-2.1364425E-1,9.4245635E-2,1.0109166E-1,-2.099867E-1,-2.8265867E-1,8.5551724E-2,-2.0291102E-1,1.4220257E-1,-2.9465106E-1,-1.1314724E-1,5.475551E-1,-1.7617266E-1,-2.8240135E-1,-5.2240048E-2,2.7852175E-1,-1.7364465E-1,1.531468E-1,-1.9506945E-1,-2.6750275E-1,2.6254218E-2],"categories":[],"categories_nodes":[],"categories_segments":[],"categories_sizes":[],"default_left":[0,0,0,0,0,0,0,0,0,0,0,0,0,0,0,0,0,0,0,0,0,0,0,0,0,0,0,0,0,0,0,0,0,0,0,0,0,0,0,0,0,0,0,0,0,0,0,0,0,0,0,0,0,0,0,0,0,0,0,0,0,0,0,0,0,0,0,0,0,0,0,0,0,0,0,0,0],"id":1,"left_children":[1,3,5,7,9,11,13,15,17,19,21,23,-1,25,27,-1,-1,29,31,33,-1,35,37,39,41,-1,43,45,47,49,51,-1,53,-1,-1,55,57,59,61,63,65,-1,-1,67,-1,69,71,73,75,-1,-1,-1,-1,-1,-1,-1,-1,-1,-1,-1,-1,-1,-1,-1,-1,-1,-1,-1,-1,-1,-1,-1,-1,-1,-1,-1,-1],"loss_changes":[9.900299E0,5.4650917E0,3.7382278E0,6.9524593E0,4.1157875E0,3.5071259E0,3.414936E0,4.586924E0,6.515956E0,4.644994E0,4.0333214E0,2.2755203E0,0E0,5.501146E0,2.8178406E0,0E0,0E0,4.7162952E0,8.548897E0,3.4579911E0,0E0,6.934986E0,3.3939362E0,1.4705887E0,2.5263503E0,0E0,7.721073E0,4.0042076E0,4.388699E0,3.1953292E0,4.0456934E0,0E0,1.478426E0,0E0,0E0,6.0781937E0,5.5963197E0,2.4563065E0,5.5378246E0,2.467824E0,1.8773804E0,0E0,0E0,6.7541404E0,0E0,2.5273323E0,2.46743E0,6.1391244E0,2.6835938E0,0E0,0E0,0E0,0E0,0E0,0E0,0E0,0E0,0E0,0E0,0E0,0E0,0E0,0E0,0E0,0E0,0E0,0E0,0E0,0E0,0E0,0E0,0E0,0E0,0E0,0E0,0E0,0E0],"parents":[2147483647,0,0,1,1,2,2,3,3,4,4,5,5,6,6,7,7,8,8,9,9,10,10,11,11,13,13,14,14,17,17,18,18,19,19,21,21,22,22,23,23,24,24,26,26,27,27,28,28,29,29,30,30,32,32,35,35,36,36,37,37,38,38,39,39,40,40,43,43,45,45,46,46,47,47,48,48],"right_children":[2,4,6,8,10,12,14,16,18,20,22,24,-1,26,28,-1,-1,30,32,34,-1,36,38,40,42,-1,44,46,48,50,52,-1,54,-1,-1,56,58,60,62,64,66,-1,-1,68,-1,70,72,74,76,-1,-1,-1,-1,-1,-1,-1,-1,-1,-1,-1,-1,-1,-1,-1,-1,-1,-1,-1,-1,-1,-1,-1,-1,-1,-1,-1,-1],"split_conditions":[1E0,1E0,1E0,6E-1,5E0,5.46E-1,2.4E1,6.3E-1,3.03E2,1E0,1.04E-2,2.15E0,1.182499E-1,3.9E-1,5.09E1,6.707581E-1,-4.4203542E-2,3.65E0,1.58E-2,3.79E1,4.256903E-1,3.6E-3,7.28E1,2E0,2.1838E4,-2.6672003E-1,2.66E0,4.31E-2,5.8E0,1.68E0,2.1E1,5.8998185E-1,2.39E-1,1.8198425E-1,-2.608971E-1,6E-4,2.96E1,3E0,-2.26E-1,4.51E-1,2.39E1,2.550678E-1,-2.012866E-1,1.2E0,-2.3730941E-1,2.7E1,6.3E0,3.2757E4,1.99E1,-2.4516545E-1,1.4869285E-1,-1.1861675E-1,4.25765E-1,-2.2484782E-1,1.1819429E-1,2.037342E-1,-3.0020496E-1,-2.1364425E-1,9.4245635E-2,1.0109166E-1,-2.099867E-1,-2.8265867E-1,8.5551724E-2,-2.0291102E-1,1.4220257E-1,-2.9465106E-1,-1.1314724E-1,5.475551E-1,-1.7617266E-1,-2.8240135E-1,-5.2240048E-2,2.7852175E-1,-1.7364465E-1,1.531468E-1,-1.9506945E-1,-2.6750275E-1,2.6254218E-2],"split_indices":[0,1,28,19,13,8,7,23,7,18,15,23,0,23,17,0,0,19,15,17,0,15,17,3,12,0,19,15,3,23,6,0,14,0,0,15,17,7,14,14,4,0,0,23,0,6,3,12,4,0,0,0,0,0,0,0,0,0,0,0,0,0,0,0,0,0,0,0,0,0,0,0,0,0,0,0,0],"split_type":[0,0,0,0,0,0,0,0,0,0,0,0,0,0,0,0,0,0,0,0,0,0,0,0,0,0,0,0,0,0,0,0,0,0,0,0,0,0,0,0,0,0,0,0,0,0,0,0,0,0,0,0,0,0,0,0,0,0,0,0,0,0,0,0,0,0,0,0,0,0,0,0,0,0,0,0,0],"sum_hessian":[4.2509143E2,2.0175359E2,2.2333783E2,2.6324121E1,1.7542947E2,1.2490053E2,9.84373E1,2.2306776E0,2.4093445E1,5.931345E0,1.6949812E2,1.2327315E2,1.6273838E0,9.986359E0,8.845094E1,1.1102964E0,1.1203811E0,1.9200504E1,4.892941E0,4.557086E0,1.3742588E0,4.1497055E1,1.2800107E2,1.20884E2,2.389143E0,3.6202288E0,6.3661304E0,5.315676E1,3.5294178E1,1.5966308E1,3.2341957E0,1.9214648E0,2.971476E0,1.8695338E0,2.6875522E0,1.5199005E1,2.629805E1,1.1373666E2,1.4264414E1,9.743449E0,1.1114056E2,1.0524471E0,1.3366958E0,4.1527324E0,2.213398E0,5.0628555E1,2.5282087E0,1.631663E1,1.8977549E1,1.4531346E1,1.4349618E0,1.8627552E0,1.3714405E0,1.921476E0,1.0500002E0,1.8122429E0,1.3386762E1,6.0954823E0,2.0202568E1,1.7787051E0,1.11957954E2,4.660161E0,9.604253E0,8.163678E0,1.5797714E0,1.039972E2,7.1433563E0,3.0873291E0,1.0654033E0,4.53314E1,5.2971516E0,1.4864976E0,1.041711E0,8.789522E0,7.5271072E0,1.5822547E1,3.1550026E0],"tree_param":{"num_deleted":"0","num_feature":"29","num_nodes":"77","size_leaf_vector":"1"}},{"base_weights":[-5.1377606E-1,-3.5717258E-1,-6.6273755E-1,-3.7821007E-1,7.6874596E-1,-6.896564E-1,7.421182E-2,-4.0162632E-1,5.7233626E-1,-6.611006E-2,4.3004274E-1,-7.0859164E-1,2.8463796E-1,-4.1869968E-1,3.3277494E-1,-5.330406E-1,-1.9122028E-1,-2.876214E-1,5.578589E-1,-8.398315E-1,-5.478674E-1,-2.0450312E-1,3.0931264E-1,1.11602634E-1,-2.5346902E-1,-6.1486036E-1,-1.4444825E-1,2.6193106E-1,-4.1022566E-1,1.2733436E-1,-2.1253707E-1,5.112435E-2,-8.5659015E-1,-8.3930844E-1,-3.8813257E-1,-1.9558027E-1,7.4232854E-2,-1.7464997E-1,1.01229586E-1,5.65033E-1,1.5599692E-2,-1.943359E-1,-2.5759595E-2,-2.620848E-1,3.952287E-2,-2.9517448E-1,-3.0472137E-2,1.838956E-1,-1.5603107E-1],"categories":[],"categories_nodes":[],"categories_segments":[],"categories_sizes":[],"default_left":[0,0,0,0,0,0,0,0,0,0,0,0,0,0,0,0,0,0,0,0,0,0,0,0,0,0,0,0,0,0,0,0,0,0,0,0,0,0,0,0,0,0,0,0,0,0,0,0,0],"id":2,"left_children":[1,3,5,7,9,11,13,15,17,-1,-1,19,21,23,-1,25,27,29,-1,31,33,-1,-1,-1,-1,35,37,39,41,-1,-1,-1,43,45,47,-1,-1,-1,-1,-1,-1,-1,-1,-1,-1,-1,-1,-1,-1],"loss_changes":[8.42627E0,4.6302013E0,3.8035583E0,4.247774E0,2.7420883E0,3.5701065E0,4.32582E0,4.7855873E0,5.7953296E0,0E0,0E0,3.3238373E0,3.7280056E0,2.2867508E0,0E0,3.352789E0,7.0064025E0,1.4139565E0,0E0,1.7861328E0,3.5620708E0,0E0,0E0,0E0,0E0,3.0100899E0,4.4433413E0,7.820066E0,3.5856757E0,0E0,0E0,0E0,1.7214508E0,2.9625587E0,7.69191E0,0E0,0E0,0E0,0E0,0E0,0E0,0E0,0E0,0E0,0E0,0E0,0E0,0E0,0E0],"parents":[2147483647,0,0,1,1,2,2,3,3,4,4,5,5,6,6,7,7,8,8,11,11,12,12,13,13,15,15,16,16,17,17,19,19,20,20,25,25,26,26,27,27,28,28,32,32,33,33,34,34],"right_children":[2,4,6,8,10,12,14,16,18,-1,-1,20,22,24,-1,26,28,30,-1,32,34,-1,-1,-1,-1,36,38,40,42,-1,-1,-1,44,46,48,-1,-1,-1,-1,-1,-1,-1,-1,-1,-1,-1,-1,-1,-1],"split_conditions":[1E0,5.05E-1,1E0,4.91E-2,1.27E2,5.24E-1,1.74E1,1E0,4E-2,-6.611006E-2,4.3004274E-1,1E0,2.55E-2,5.1E0,3.3277494E-1,2.1E1,1.26E-2,5.76E1,5.578589E-1,-1.103E0,8.7E0,-2.0450312E-1,3.0931264E-1,1.11602634E-1,-2.5346902E-1,1E0,1.99E-2,1.9E0,1.4E1,1.2733436E-1,-2.1253707E-1,5.112435E-2,2E0,2.6E1,1.01E1,-1.9558027E-1,7.4232854E-2,-1.7464997E-1,1.01229586E-1,5.65033E-1,1.5599692E-2,-1.943359E-1,-2.5759595E-2,-2.620848E-1,3.952287E-2,-2.9517448E-1,-3.0472137E-2,1.838956E-1,-1.5603107E-1],"split_indices":[0,8,24,15,7,8,4,28,10,0,0,28,15,3,0,6,15,22,0,14,4,0,0,0,0,24,15,3,4,0,0,0,9,6,4,0,0,0,0,0,0,0,0,0,0,0,0,0,0],"split_type":[0,0,0,0,0,0,0,0,0,0,0,0,0,0,0,0,0,0,0,0,0,0,0,0,0,0,0,0,0,0,0,0,0,0,0,0,0,0,0,0,0,0,0,0,0,0,0,0,0],"sum_hessian":[3.703569E2,1.8220364E2,1.8815324E2,1.7951357E2,2.6900754E0,1.8158463E2,6.568626E0,1.7576126E2,3.7523158E0,1.3499084E0,1.340167E0,1.7839035E2,3.1942732E0,4.852985E0,1.7156413E0,1.0724521E2,6.8516045E1,2.715006E0,1.0373098E0,9.587667E1,8.251367E1,1.4298583E0,1.7644149E0,1.7441915E0,3.1087933E0,8.811083E1,1.9134378E1,2.2260368E1,4.6255676E1,1.0053436E0,1.7096624E0,1.4149066E0,9.446177E1,2.7707008E1,5.4806667E1,8.471266E1,3.398175E0,9.91758E0,9.216799E0,1.6378627E0,2.0622505E1,2.6124815E1,2.013086E1,9.297616E1,1.4856107E0,2.2887114E1,4.8198943E0,5.9588227E0,4.8847843E1],"tree_param":{"num_deleted":"0","num_feature":"29","num_nodes":"49","size_leaf_vector":"1"}},{"base_weights":[-4.2300126E-1,-2.792686E-1,-5.7028013E-1,9.306089E-2,-3.4059983E-1,-6.6331375E-1,-2.886521E-1,1.0565985E0,-6.933451E-2,4.9577102E-1,-3.7142462E-1,-7.741586E-1,-4.4501188E-1,-7.245852E-1,1.765506E-1,5.0373524E-1,-4.7680657E-2,-4.6604896E-1,3.8997146E-1,9.849295E-1,-1.8829302E-1,-3.934246E-1,5.544512E-1,1.1959463E-1,-8.0521375E-1,2.6815978E-1,-5.167384E-1,-7.9858863E-1,7.633642E-2,-7.097501E-1,6.7481995E-1,9.827195E-2,-8.3920705E-1,1.065896E0,-2.9008606E-1,-5.333212E-2,1.461725E0,-1.5723975E-1,-4.9464047E-1,4.0020606E-1,-1.8002626E-1,-8.274693E-1,1.3227712E-1,-6.4703643E-1,2.4414639E-1,-8.7025064E-1,-1.5624583E-1,-2.7761433E-1,3.320872E-2,1.3376758E0,-4.2071274E-1,-1.6719458E-1,2.632286E-1,-2.4248056E-2,-2.855745E-1,-1.4344043E-2,4.8132005E-1,-2.1104817E-1,2.554648E-1,6.613865E-1,-1.5511175E-2,-2.2311583E-1,1.0793895E-2,6.664975E-2,-1.609835E-1,-2.5501406E-1,9.367096E-2,1.01899795E-1,-2.131028E-1,-6.2323436E-2,4.151224E-1,-7.470967E-2,-3.0589896E-1,1.3161042E-1,-1.8435872E-1,2.1611268E-2,5.379551E-1,1.5683377E-1,-2.5483888E-1],"categories":[],"categories_nodes":[],"categories_segments":[],"categories_sizes":[],"default_left":[0,0,0,0,0,0,0,0,0,0,0,0,0,0,0,0,0,0,0,0,0,0,0,0,0,0,0,0,0,0,0,0,0,0,0,0,0,0,0,0,0,0,0,0,0,0,0,0,0,0,0,0,0,0,0,0,0,0,0,0,0,0,0,0,0,0,0,0,0,0,0,0,0,0,0,0,0,0,0],"id":3,"left_children":[1,3,5,7,9,11,13,15,17,19,21,23,25,27,29,-1,-1,31,33,35,-1,37,39,-1,41,-1,43,45,-1,47,49,51,53,55,57,-1,59,61,63,-1,-1,65,-1,67,69,71,73,-1,-1,75,77,-1,-1,-1,-1,-1,-1,-1,-1,-1,-1,-1,-1,-1,-1,-1,-1,-1,-1,-1,-1,-1,-1,-1,-1,-1,-1,-1,-1],"loss_changes":[6.790512E0,3.870597E0,4.0318947E0,3.9163992E0,3.9107933E0,2.5687675E0,8.604141E0,2.9940224E0,4.1825733E0,3.6770813E0,3.0695057E0,3.1800385E0,4.5814047E0,1.7807064E0,9.763294E0,0E0,0E0,2.6592886E0,5.2368937E0,2.6254225E0,0E0,3.2049522E0,4.098337E0,0E0,2.4949074E0,0E0,4.257407E0,8.0696106E-1,0E0,1.5271535E0,1.0707769E1,3.43427E0,5.6162834E-1,3.4294395E0,3.4920824E0,0E0,3.6382742E0,4.8609943E0,2.9971619E0,0E0,0E0,2.2159958E0,0E0,2.4636116E0,3.7746694E0,1.4362555E0,1.1624782E0,0E0,0E0,5.0266705E0,2.8821828E0,0E0,0E0,0E0,0E0,0E0,0E0,0E0,0E0,0E0,0E0,0E0,0E0,0E0,0E0,0E0,0E0,0E0,0E0,0E0,0E0,0E0,0E0,0E0,0E0,0E0,0E0,0E0,0E0],"parents":[2147483647,0,0,1,1,2,2,3,3,4,4,5,5,6,6,7,7,8,8,9,9,10,10,11,11,12,12,13,13,14,14,17,17,18,18,19,19,21,21,22,22,24,24,26,26,27,27,29,29,30,30,31,31,32,32,33,33,34,34,36,36,37,37,38,38,41,41,43,43,44,44,45,45,46,46,49,49,50,50],"right_children":[2,4,6,8,10,12,14,16,18,20,22,24,26,28,30,-1,-1,32,34,36,-1,38,40,-1,42,-1,44,46,-1,48,50,52,54,56,58,-1,60,62,64,-1,-1,66,-1,68,70,72,74,-1,-1,76,78,-1,-1,-1,-1,-1,-1,-1,-1,-1,-1,-1,-1,-1,-1,-1,-1,-1,-1,-1,-1,-1,-1,-1,-1,-1,-1,-1,-1],"split_conditions":[1E0,1E0,1.77E1,6E-1,1E0,5.46E1,1.97E0,2.67E-1,1E0,7.1E0,1.25E1,-1.028E0,5.53E1,6.93E1,1.37E-1,5.0373524E-1,-4.7680657E-2,5.2E1,1.59E-2,3.27E1,-1.8829302E-1,1.23E-2,2.86E-1,1.1959463E-1,5.34E-2,2.6815978E-1,6.71E1,3.68E-2,7.633642E-2,1.18E0,6.17E1,1.74E-1,9E-2,5.91E1,1.99E1,-5.333212E-2,1E0,3.1E-1,4E-2,4.0020606E-1,-1.8002626E-1,1E0,1.3227712E-1,1.3E0,3.3E-2,3.3E-1,1.5E-1,-2.7761433E-1,3.320872E-2,1.1142E4,2.54E0,-1.6719458E-1,2.632286E-1,-2.4248056E-2,-2.855745E-1,-1.4344043E-2,4.8132005E-1,-2.1104817E-1,2.554648E-1,6.613865E-1,-1.5511175E-2,-2.2311583E-1,1.0793895E-2,6.664975E-2,-1.609835E-1,-2.5501406E-1,9.367096E-2,1.01899795E-1,-2.131028E-1,-6.2323436E-2,4.151224E-1,-7.470967E-2,-3.0589896E-1,1.3161042E-1,-1.8435872E-1,2.1611268E-2,5.379551E-1,1.5683377E-1,-2.5483888E-1],"split_indices":[0,1,4,19,4,17,19,8,28,3,3,14,17,22,8,0,0,13,15,17,0,15,8,0,15,0,22,15,0,23,22,8,8,22,4,0,18,23,8,0,0,11,0,4,15,23,8,0,0,12,19,0,0,0,0,0,0,0,0,0,0,0,0,0,0,0,0,0,0,0,0,0,0,0,0,0,0,0,0],"split_type":[0,0,0,0,0,0,0,0,0,0,0,0,0,0,0,0,0,0,0,0,0,0,0,0,0,0,0,0,0,0,0,0,0,0,0,0,0,0,0,0,0,0,0,0,0,0,0,0,0,0,0,0,0,0,0,0,0,0,0,0,0,0,0,0,0,0,0,0,0,0,0,0,0,0,0,0,0,0,0],"sum_hessian":[3.2730304E2,1.6711151E2,1.6019154E2,2.3560875E1,1.4355063E2,1.1939504E2,4.07965E1,2.6040397E0,2.0956835E1,4.5664105E0,1.3898422E2,7.7498276E1,4.1896767E1,2.0772963E1,2.0023539E1,1.4698794E0,1.1341604E0,1.1236714E1,9.720121E0,3.267112E0,1.2992984E0,1.3632016E2,2.664059E0,1.6938211E0,7.580446E1,1.5475433E0,4.034922E1,1.9484488E1,1.2884748E0,7.0531893E0,1.297035E1,4.7659273E0,6.4707866E0,4.590328E0,5.1297927E0,1.1325208E0,2.1345913E0,4.166032E1,9.465984E1,1.497475E0,1.1665838E0,7.480445E1,1.0000063E0,3.4577595E1,5.7716274E0,1.7209705E1,2.2747822E0,5.48398E0,1.569209E0,7.9432383E0,5.0271115E0,2.7428212E0,2.0231063E0,1.0594151E0,5.4113717E0,1.7931103E0,2.797218E0,4.047794E0,1.081999E0,1.1254405E0,1.0091509E0,9.617919E0,3.20424E1,4.9985547E0,8.966129E1,7.360058E1,1.2038728E0,1.8215249E0,3.275607E1,4.718337E0,1.0532907E0,3.853712E0,1.3355993E1,1.0083988E0,1.2663835E0,2.4087162E0,5.534522E0,1.5021735E0,3.524938E0],"tree_param":{"num_deleted":"0","num_feature":"29","num_nodes":"79","size_leaf_vector":"1"}},{"base_weights":[-3.4438142E-1,-2.8812388E-1,-6.8334985E-1,-3.0458066E-1,8.0584097E-1,-2.1565011E-1,-8.3068544E-1,-4.2108297E-1,-1.5758663E-1,5.102511E-1,-3.8163163E-2,7.6306796E-1,-7.173222E-1,-9.3811625E-1,-2.8314307E-2,-4.9742678E-1,9.1272175E-2,-5.778787E-1,-6.1754815E-2,-4.0248382E-1,5.999599E-1,-2.7823082E-1,8.860077E-2,-3.3169416E-1,-1.0004703E0,-2.2816315E-1,3.1570905E-1,-5.2537465E-1,6.6974324E-1,4.9971837E-1,-4.2652246E-1,-7.4132687E-1,2.5107363E-1,4.3381056E-1,-1.4647678E-1,-1.6450322E-1,-1.6809959E-2,-2.1416315E-1,1.06987394E-1,-2.8803354E-2,-3.121006E-1,-1.6598491E-1,1.4049718E-1,4.7587427E-1,-1.7615183E-1,3.0938756E-1,-1.8093722E-1,-2.6185933E-1,3.7320446E-2,-2.8807846E-1,-1.2269996E-2,4.008974E-2,4.757898E-1,-1.6297221E-2,-2.0691024E-1],"categories":[],"categories_nodes":[],"categories_segments":[],"categories_sizes":[],"default_left":[0,0,0,0,0,0,0,0,0,0,0,0,0,0,0,0,0,0,0,0,0,0,0,0,0,0,0,0,0,0,0,0,0,0,0,0,0,0,0,0,0,0,0,0,0,0,0,0,0,0,0,0,0,0,0],"id":4,"left_children":[1,3,5,7,9,11,13,15,17,-1,-1,19,21,23,25,27,29,31,33,35,-1,-1,-1,37,39,-1,-1,41,43,45,47,49,-1,51,53,-1,-1,-1,-1,-1,-1,-1,-1,-1,-1,-1,-1,-1,-1,-1,-1,-1,-1,-1,-1],"loss_changes":[5.439743E0,4.8405304E0,2.6699047E0,4.2522755E0,3.604271E0,6.073571E0,2.65337E0,5.52479E0,4.519575E0,0E0,0E0,7.0016565E0,1.9668255E0,7.0375824E-1,4.521296E0,4.333847E0,4.2338657E0,5.4487743E0,3.9773064E0,1.2317565E-1,0E0,0E0,0E0,1.31986E0,7.776642E-1,0E0,0E0,3.5808601E0,4.726289E0,7.1224465E0,2.302747E0,2.9123173E0,0E0,4.582323E0,3.9850864E0,0E0,0E0,0E0,0E0,0E0,0E0,0E0,0E0,0E0,0E0,0E0,0E0,0E0,0E0,0E0,0E0,0E0,0E0,0E0,0E0],"parents":[2147483647,0,0,1,1,2,2,3,3,4,4,5,5,6,6,7,7,8,8,11,11,12,12,13,13,14,14,15,15,16,16,17,17,18,18,19,19,23,23,24,24,27,27,28,28,29,29,30,30,31,31,33,33,34,34],"right_children":[2,4,6,8,10,12,14,16,18,-1,-1,20,22,24,26,28,30,32,34,36,-1,-1,-1,38,40,-1,-1,42,44,46,48,50,-1,52,54,-1,-1,-1,-1,-1,-1,-1,-1,-1,-1,-1,-1,-1,-1,-1,-1,-1,-1,-1,-1],"split_conditions":[1E0,5.46E-1,5.68E1,1E0,5.5E0,1.27E-2,6.92E1,2.6E1,2.3E-1,5.102511E-1,-3.8163163E-2,8E-3,9.4E0,3.6E0,6.11E1,2.18E0,6.31E1,2E0,1E0,3.95E1,5.999599E-1,-2.7823082E-1,8.860077E-2,3.2987E4,2.2E-1,-2.2816315E-1,3.1570905E-1,4.98E-2,2.36E-2,1.94E-1,6.71E1,2.73E2,2.5107363E-1,4.26E2,1.44E0,-1.6450322E-1,-1.6809959E-2,-2.1416315E-1,1.06987394E-1,-2.8803354E-2,-3.121006E-1,-1.6598491E-1,1.4049718E-1,4.7587427E-1,-1.7615183E-1,3.0938756E-1,-1.8093722E-1,-2.6185933E-1,3.7320446E-2,-2.8807846E-1,-1.2269996E-2,4.008974E-2,4.757898E-1,-1.6297221E-2,-2.0691024E-1],"split_indices":[25,8,22,28,3,15,22,6,23,0,0,15,3,4,17,23,22,18,1,17,0,0,0,12,19,0,0,15,15,14,22,7,0,7,23,0,0,0,0,0,0,0,0,0,0,0,0,0,0,0,0,0,0,0,0],"split_type":[0,0,0,0,0,0,0,0,0,0,0,0,0,0,0,0,0,0,0,0,0,0,0,0,0,0,0,0,0,0,0,0,0,0,0,0,0,0,0,0,0,0,0,0,0,0,0,0,0,0,0,0,0,0,0],"sum_hessian":[2.9458292E2,2.5423784E2,4.034507E1,2.5118083E2,3.056998E0,1.0255104E1,3.0089964E1,1.3908351E2,1.1209733E2,1.1403157E0,1.9166822E0,3.2986596E0,6.9564443E0,2.6387693E1,3.7022715E0,1.21072205E2,1.8011307E1,1.9879807E1,9.221752E1,2.0455348E0,1.2531246E0,5.8307858E0,1.1256586E0,3.04949E0,2.3338203E1,2.3835177E0,1.3187537E0,1.1877795E2,2.2942624E0,1.0088342E1,7.9229646E0,1.8247702E1,1.632106E0,1.2862182E1,7.935534E1,1.0293972E0,1.0161377E0,1.9369075E0,1.1125826E0,1.1291203E0,2.2209082E1,1.1596426E2,2.8136895E0,1.1752737E0,1.1189888E0,6.8510113E0,3.2373304E0,4.054095E0,3.8688698E0,1.361961E1,4.6280913E0,1.1089065E1,1.7731172E0,6.878639E1,1.0568945E1],"tree_param":{"num_deleted":"0","num_feature":"29","num_nodes":"55","size_leaf_vector":"1"}},{"base_weights":[-2.7487302E-1,-1.4473002E-1,-4.211831E-1,-8.265922E-2,-5.668066E-1,-6.7449343E-1,-3.0002078E-1,-3.5959595E-1,3.5769325E-2,2.4073082E-1,-7.717395E-1,-2.0496897E-1,-8.09909E-1,-5.1749456E-1,-3.9581366E-2,7.323901E-1,-4.410335E-1,2.6728413E-1,-1.7720804E-1,-4.8671028E-1,3.7339586E-1,5.8118273E-2,-9.4312006E-1,-5.996074E-1,3.1730443E-1,-8.620555E-1,9.721301E-2,4.3880686E-1,-6.2200737E-1,-3.0604774E-1,4.2035004E-1,3.6678824E-1,-3.4244265E-2,1.2413839E-1,-6.057336E-1,-3.0230737E-1,4.2827594E-1,7.026558E-1,-2.9852685E-1,-1.9321896E-1,-1.8282557E-2,-1.9684514E-1,2.560746E-1,-2.3937473E-2,-3.0420715E-1,2.0467997E-1,-2.764096E-1,-3.775482E-1,-9.416442E-1,4.2402074E-1,-4.8196024E-1,-2.6020664E-1,-7.569677E-1,-4.7407326E-1,6.3138485E-1,9.348059E-1,-2.592953E-1,-1.9360296E-1,2.3336807E-1,9.275448E-2,-2.294945E-1,8.5162885E-2,-2.6574793E-1,3.5369965E-1,6.305524E-2,-4.853994E-2,5.3064585E-1,-1.7243937E-1,3.2612726E-3,-2.4255903E-1,1.24450825E-1,-3.0284804E-1,-1.3646968E-1,-1.9106889E-1,-1.5280615E-2,-1.4814322E-1,2.9291233E-1,-2.5808954E-1,1.0894867E-2,-1.7240539E-1,2.1002111E-1,-6.1268635E-2,5.2241313E-1,-5.5685613E-2,4.3466032E-1],"categories":[],"categories_nodes":[],"categories_segments":[],"categories_sizes":[],"default_left":[0,0,0,0,0,0,0,0,0,0,0,0,0,0,0,0,0,0,0,0,0,0,0,0,0,0,0,0,0,0,0,0,0,0,0,0,0,0,0,0,0,0,0,0,0,0,0,0,0,0,0,0,0,0,0,0,0,0,0,0,0,0,0,0,0,0,0,0,0,0,0,0,0,0,0,0,0,0,0,0,0,0,0,0,0],"id":5,"left_children":[1,3,5,7,9,11,13,15,17,19,21,23,25,27,29,31,33,35,37,39,-1,41,43,45,-1,47,-1,49,51,53,55,-1,-1,57,59,61,63,65,67,-1,-1,-1,-1,-1,-1,-1,-1,69,71,-1,73,75,77,79,81,83,-1,-1,-1,-1,-1,-1,-1,-1,-1,-1,-1,-1,-1,-1,-1,-1,-1,-1,-1,-1,-1,-1,-1,-1,-1,-1,-1,-1,-1],"loss_changes":[5.100748E0,3.7516932E0,3.6982498E0,4.196878E0,3.2337832E0,2.397541E0,4.9507465E0,3.7293081E0,4.498273E0,3.8849428E0,2.1778593E0,5.798632E0,2.1097736E0,5.04515E0,5.15625E0,1.398764E0,3.4513035E0,4.1322155E0,5.29269E0,1.8334317E-1,0E0,2.547052E0,6.800089E-1,4.148711E0,0E0,7.9621124E-1,0E0,5.4288087E0,1.9250069E0,4.4817524E0,1.1032055E1,0E0,0E0,5.036705E0,4.3532543E0,3.74211E0,5.391842E0,5.8790474E0,3.643288E0,0E0,0E0,0E0,0E0,0E0,0E0,0E0,0E0,2.3445773E0,3.658886E-1,0E0,1.99031E-1,4.3328886E0,2.5827503E0,3.129778E0,4.496854E0,6.9079266E0,0E0,0E0,0E0,0E0,0E0,0E0,0E0,0E0,0E0,0E0,0E0,0E0,0E0,0E0,0E0,0E0,0E0,0E0,0E0,0E0,0E0,0E0,0E0,0E0,0E0,0E0,0E0,0E0,0E0],"parents":[2147483647,0,0,1,1,2,2,3,3,4,4,5,5,6,6,7,7,8,8,9,9,10,10,11,11,12,12,13,13,14,14,15,15,16,16,17,17,18,18,19,19,21,21,22,22,23,23,25,25,27,27,28,28,29,29,30,30,33,33,34,34,35,35,36,36,37,37,38,38,47,47,48,48,50,50,51,51,52,52,53,53,54,54,55,55],"right_children":[2,4,6,8,10,12,14,16,18,20,22,24,26,28,30,32,34,36,38,40,-1,42,44,46,-1,48,-1,50,52,54,56,-1,-1,58,60,62,64,66,68,-1,-1,-1,-1,-1,-1,-1,-1,70,72,-1,74,76,78,80,82,84,-1,-1,-1,-1,-1,-1,-1,-1,-1,-1,-1,-1,-1,-1,-1,-1,-1,-1,-1,-1,-1,-1,-1,-1,-1,-1,-1,-1,-1],"split_conditions":[1E0,2.15E1,8.7E0,6.6E1,3.7E1,1.01E0,2.22E0,6E-1,1E0,8E1,-4.31E-1,4.34E-1,5.24E-1,2E0,5.46E1,6.8E0,1.1085E4,-3.59E-1,1.58E1,6.28E1,3.7339586E-1,2.53E1,1.0875E4,6.1E-3,3.1730443E-1,3.1E1,9.721301E-2,-3.3E-2,-2.43E-1,2.39E1,6.5924E4,3.6678824E-1,-3.4244265E-2,9E0,7.3E-2,1.57E-2,-1.76E-1,1.13E1,7E-1,-1.9321896E-1,-1.8282557E-2,-1.9684514E-1,2.560746E-1,-2.3937473E-2,-3.0420715E-1,2.0467997E-1,-2.764096E-1,2E1,2.7E1,4.2402074E-1,1.05E2,-2.93E-1,7.22E-1,3.3383E4,8.4E0,-8.5E-2,-2.592953E-1,-1.9360296E-1,2.3336807E-1,9.275448E-2,-2.294945E-1,8.5162885E-2,-2.6574793E-1,3.5369965E-1,6.305524E-2,-4.853994E-2,5.3064585E-1,-1.7243937E-1,3.2612726E-3,-2.4255903E-1,1.24450825E-1,-3.0284804E-1,-1.3646968E-1,-1.9106889E-1,-1.5280615E-2,-1.4814322E-1,2.9291233E-1,-2.5808954E-1,1.0894867E-2,-1.7240539E-1,2.1002111E-1,-6.1268635E-2,5.2241313E-1,-5.5685613E-2,4.3466032E-1],"split_indices":[0,4,4,7,7,19,19,3,27,13,14,14,8,3,17,4,12,14,17,22,0,4,12,15,0,13,0,14,14,4,12,0,0,6,8,15,14,17,23,0,0,0,0,0,0,0,0,13,6,0,13,14,14,12,3,14,0,0,0,0,0,0,0,0,0,0,0,0,0,0,0,0,0,0,0,0,0,0,0,0,0,0,0,0,0],"split_type":[0,0,0,0,0,0,0,0,0,0,0,0,0,0,0,0,0,0,0,0,0,0,0,0,0,0,0,0,0,0,0,0,0,0,0,0,0,0,0,0,0,0,0,0,0,0,0,0,0,0,0,0,0,0,0,0,0,0,0,0,0,0,0,0,0,0,0,0,0,0,0,0,0,0,0,0,0,0,0,0,0,0,0,0,0],"sum_hessian":[2.7008047E2,1.4399022E2,1.2609026E2,1.2657227E2,1.741794E1,3.9319447E1,8.677082E1,3.7303738E1,8.926854E1,3.4901865E0,1.3927753E1,9.364315E0,2.9955133E1,4.6748E1,4.002282E1,2.0341947E0,3.5269543E1,4.265063E1,4.6617905E1,2.3224976E0,1.1676888E0,2.4971163E0,1.1430637E1,7.5345345E0,1.8297808E0,2.88674E1,1.0877335E0,4.290544E0,4.2457455E1,2.5552988E1,1.4469829E1,1.0068505E0,1.0273442E0,8.01436E0,2.7255182E1,9.205093E0,3.3445538E1,5.0682983E0,4.1549606E1,1.3214256E0,1.0010722E0,1.4079838E0,1.0891327E0,1.0288334E0,1.0401804E1,1.2869456E0,6.2475886E0,4.8833113E0,2.3984089E1,1.8244299E0,2.466114E0,1.2330356E1,3.01271E1,2.2088186E1,3.464803E0,1.0526672E1,3.943157E0,3.6872585E0,4.327102E0,3.9010844E0,2.3354097E1,4.848232E0,4.356861E0,6.5371547E0,2.6908382E1,3.267345E0,1.8009534E0,2.1496717E1,2.005289E1,3.1497629E0,1.7335483E0,2.010729E1,3.8767984E0,1.4627001E0,1.003414E0,1.0876354E1,1.454001E0,2.6580347E1,3.546753E0,2.0815107E1,1.273079E0,2.4422562E0,1.022547E0,3.5116858E0,7.014986E0],"tree_param":{"num_deleted":"0","num_feature":"29","num_nodes":"85","size_leaf_vector":"1"}},{"base_weights":[-2.2240403E-1,-1.7121309E-1,-5.735384E-1,-5.503523E-1,-1.3396361E-1,-7.167632E-1,-7.836089E-2,-6.894322E-1,1.4440145E-1,-3.5639855E-1,-6.515946E-2,-2.0218013E-1,-8.527444E-1,1.0346135E0,-6.1398435E-1,3.5532225E-2,-8.722988E-1,-5.6019783E-1,2.8152847E-1,6.4068377E-1,-1.0337569E-1,4.3214953E-1,-5.9391165E-1,-9.465246E-1,4.9442146E-2,3.8532352E-1,8.57809E-2,-2.596675E-1,6.835672E-2,-2.2472152E-1,3.3793578E-1,1.9694403E-2,-2.9794967E-1,-7.7593917E-1,3.163853E-1,-3.5287835E-2,3.8209638E-1,1.3603705E0,-2.5771898E-1,-5.405894E-1,-4.476023E-2,2.571454E-1,-6.4492956E-2,-9.524977E-3,-2.2526678E-1,-4.133047E-1,-2.9789495E-1,-2.6064962E-1,2.4884962E-1,-1.8364E-1,2.616561E-1,-1.4647278E-1,3.390253E-1,6.995173E-2,5.11393E-1,-2.2777142E-1,1.9537379E-1,1.6522609E-1,-1.9910675E-1,-5.251073E-2,6.369692E-2,-1.7100874E-1,-1.2755001E-2],"categories":[],"categories_nodes":[],"categories_segments":[],"categories_sizes":[],"default_left":[0,0,0,0,0,0,0,0,0,0,0,0,0,0,0,0,0,0,0,0,0,0,0,0,0,0,0,0,0,0,0,0,0,0,0,0,0,0,0,0,0,0,0,0,0,0,0,0,0,0,0,0,0,0,0,0,0,0,0,0,0,0,0],"id":6,"left_children":[1,3,5,7,9,11,13,15,-1,17,19,21,23,25,27,29,31,33,35,37,39,41,43,45,-1,-1,-1,-1,-1,-1,-1,-1,-1,47,49,51,-1,53,55,57,59,-1,-1,-1,-1,61,-1,-1,-1,-1,-1,-1,-1,-1,-1,-1,-1,-1,-1,-1,-1,-1,-1],"loss_changes":[4.4453154E0,3.0619936E0,2.1946259E0,3.1357436E0,3.091117E0,1.5414953E0,5.549027E0,2.3683453E0,0E0,6.378726E0,4.291594E0,1.8545356E0,1.9751158E0,2.0323253E-1,1.5086536E0,4.706036E0,1.6657686E0,7.1670103E0,3.895749E0,5.642332E0,3.8060236E0,1.0186654E0,3.641436E-1,2.5660515E-2,0E0,0E0,0E0,0E0,0E0,0E0,0E0,0E0,0E0,5.1440716E0,4.630988E0,5.967041E0,0E0,1.4277506E0,2.5371385E0,2.7270498E0,4.4875154E0,0E0,0E0,0E0,0E0,1.572913E-1,0E0,0E0,0E0,0E0,0E0,0E0,0E0,0E0,0E0,0E0,0E0,0E0,0E0,0E0,0E0,0E0,0E0],"parents":[2147483647,0,0,1,1,2,2,3,3,4,4,5,5,6,6,7,7,9,9,10,10,11,11,12,12,13,13,14,14,15,15,16,16,17,17,18,18,19,19,20,20,21,21,22,22,23,23,33,33,34,34,35,35,37,37,38,38,39,39,40,40,45,45],"right_children":[2,4,6,8,10,12,14,16,-1,18,20,22,24,26,28,30,32,34,36,38,40,42,44,46,-1,-1,-1,-1,-1,-1,-1,-1,-1,48,50,52,-1,54,56,58,60,-1,-1,-1,-1,62,-1,-1,-1,-1,-1,-1,-1,-1,-1,-1,-1,-1,-1,-1,-1,-1,-1],"split_conditions":[1E0,4.1E-1,6.43E1,1.72E0,2.96E1,5.61E1,6.74E1,3.8E0,1.4440145E-1,1.83E1,1.3E0,1.27E-2,3.98E-2,1.36E-2,2.3E1,2.8E0,1E0,2.3E1,2.4E-1,5.3E0,1.9E1,-1.19E-1,6.6E1,3.6E0,4.9442146E-2,3.8532352E-1,8.57809E-2,-2.596675E-1,6.835672E-2,-2.2472152E-1,3.3793578E-1,1.9694403E-2,-2.9794967E-1,3.3194E4,1.01E2,8.5E0,3.8209638E-1,1.1E-1,2.6E1,4E-2,2.35E-1,2.571454E-1,-6.4492956E-2,-9.524977E-3,-2.2526678E-1,1.18E2,-2.9789495E-1,-2.6064962E-1,2.4884962E-1,-1.8364E-1,2.616561E-1,-1.4647278E-1,3.390253E-1,6.995173E-2,5.11393E-1,-2.2777142E-1,1.9537379E-1,1.6522609E-1,-1.9910675E-1,-5.251073E-2,6.369692E-2,-1.7100874E-1,-1.2755001E-2],"split_indices":[25,19,17,23,17,22,17,3,0,4,4,15,15,15,6,3,1,6,10,3,13,14,7,4,0,0,0,0,0,0,0,0,0,12,7,3,0,8,6,8,8,0,0,0,0,7,0,0,0,0,0,0,0,0,0,0,0,0,0,0,0,0,0],"split_type":[0,0,0,0,0,0,0,0,0,0,0,0,0,0,0,0,0,0,0,0,0,0,0,0,0,0,0,0,0,0,0,0,0,0,0,0,0,0,0,0,0,0,0,0,0,0,0,0,0,0,0,0,0,0,0,0,0,0,0,0,0,0,0],"sum_hessian":[2.5176984E2,2.2103355E2,3.0736296E1,1.8541044E1,2.0249251E2,2.3493551E1,7.2427444E0,1.6630825E1,1.9102198E0,4.6850616E1,1.5564189E2,5.4304276E0,1.8063124E1,2.050466E0,5.1922784E0,3.5122797E0,1.3118545E1,3.559946E1,1.1251155E1,7.184343E0,1.4845755E2,2.033847E0,3.3965805E0,1.660277E1,1.4603529E0,1.0009288E0,1.0495372E0,3.9759414E0,1.216337E0,2.2252264E0,1.2870535E0,1.549672E0,1.1568873E1,2.866047E1,6.9389915E0,9.258927E0,1.9922273E0,3.7034204E0,3.4809225E0,1.6578156E1,1.318794E2,1.0317148E0,1.0021323E0,1.0038593E0,2.392721E0,2.1237688E0,1.4479002E1,2.7526562E1,1.1339059E0,2.5603447E0,4.378647E0,7.0858526E0,2.173075E0,1.2588981E0,2.4445221E0,2.3493803E0,1.1315421E0,1.3282741E0,1.5249881E1,8.773786E1,4.414153E1,1.1150959E0,1.008673E0],"tree_param":{"num_deleted":"0","num_feature":"29","num_nodes":"63","size_leaf_vector":"1"}},{"base_weights":[-1.742751E-1,-1.3142025E-1,-4.9989703E-1,4.358533E-1,-1.5406078E-1,-6.678725E-1,-8.256231E-2,-1.4472844E-1,1.3427376E0,-8.3968127E-1,-1.2318257E-1,-1.2079496E-1,-8.4147185E-1,-6.506328E-1,4.5420003E-1,-5.9401494E-1,1.5278918E-1,6.014896E-1,2.2836003E-2,-2.811503E-1,-1.5236146E-2,-4.2084195E-2,-4.1853654E-1,-4.7411108E-1,1.6951256E-1,-1.5574855E-2,-8.971392E-1,-2.1428116E-2,-2.3608966E-1,3.741967E-1,-4.6546444E-1,-2.2428992E-1,-2.0995729E-2,-8.854614E-2,1.0214479E0,-6.474226E-1,3.85675E-1,-2.2353499E-1,4.998139E-2,-9.855867E-2,-2.8669837E-1,-2.472284E-2,-1.8257953E-1,-3.474804E-2,2.4174385E-1,-1.5469364E-2,4.381345E-1,9.982057E-3,-2.2155792E-1,-6.084806E-3,4.4038576E-1],"categories":[],"categories_nodes":[],"categories_segments":[],"categories_sizes":[],"default_left":[0,0,0,0,0,0,0,0,0,0,0,0,0,0,0,0,0,0,0,0,0,0,0,0,0,0,0,0,0,0,0,0,0,0,0,0,0,0,0,0,0,0,0,0,0,0,0,0,0,0,0],"id":7,"left_children":[1,3,5,7,9,11,13,15,17,19,21,23,25,27,29,31,-1,-1,-1,-1,-1,33,35,37,-1,-1,39,-1,-1,-1,41,-1,-1,43,45,47,49,-1,-1,-1,-1,-1,-1,-1,-1,-1,-1,-1,-1,-1,-1],"loss_changes":[3.264791E0,2.7933714E0,1.8657289E0,4.621226E0,4.2335835E0,1.740468E0,3.0412402E0,2.0740683E0,2.6816583E0,6.181574E-1,4.705923E0,1.6829939E0,5.9321404E-1,3.217063E-1,4.3872585E0,2.7252722E-1,0E0,0E0,0E0,0E0,0E0,7.790659E0,8.049068E0,8.87805E-1,0E0,0E0,1.3647556E-1,0E0,0E0,0E0,1.2227416E-1,0E0,0E0,3.7587214E0,3.1854486E0,2.093173E0,4.4295754E0,0E0,0E0,0E0,0E0,0E0,0E0,0E0,0E0,0E0,0E0,0E0,0E0,0E0,0E0],"parents":[2147483647,0,0,1,1,2,2,3,3,4,4,5,5,6,6,7,7,8,8,9,9,10,10,11,11,12,12,13,13,14,14,15,15,21,21,22,22,23,23,26,26,30,30,33,33,34,34,35,35,36,36],"right_children":[2,4,6,8,10,12,14,16,18,20,22,24,26,28,30,32,-1,-1,-1,-1,-1,34,36,38,-1,-1,40,-1,-1,-1,42,-1,-1,44,46,48,50,-1,-1,-1,-1,-1,-1,-1,-1,-1,-1,-1,-1,-1,-1],"split_conditions":[1E0,5E0,6.2E1,3.24E-2,1.3E1,5.61E1,1.31E1,2.2114E4,4.9E0,4.09E2,3.11E-2,1E-2,7E-1,3.3E0,6.74E1,1.47E-1,1.5278918E-1,6.014896E-1,2.2836003E-2,-2.811503E-1,-1.5236146E-2,2.94E-2,4.59E-1,8.3E0,1.6951256E-1,-1.5574855E-2,3.6E0,-2.1428116E-2,-2.3608966E-1,3.741967E-1,2.26E-2,-2.2428992E-1,-2.0995729E-2,2.15E0,1.1252E4,1E0,3E-2,-2.2353499E-1,4.998139E-2,-9.855867E-2,-2.8669837E-1,-2.472284E-2,-1.8257953E-1,-3.474804E-2,2.4174385E-1,-1.5469364E-2,4.381345E-1,9.982057E-3,-2.2155792E-1,-6.084806E-3,4.4038576E-1],"split_indices":[25,13,17,15,13,22,4,12,3,7,15,10,3,3,17,14,0,0,0,0,0,15,14,3,0,0,4,0,0,0,15,0,0,23,12,1,10,0,0,0,0,0,0,0,0,0,0,0,0,0,0],"split_type":[0,0,0,0,0,0,0,0,0,0,0,0,0,0,0,0,0,0,0,0,0,0,0,0,0,0,0,0,0,0,0,0,0,0,0,0,0,0,0,0,0,0,0,0,0,0,0,0,0,0,0],"sum_hessian":[2.3766803E2,2.1126695E2,2.6401081E1,7.407829E0,2.0385913E2,1.8396315E1,8.0047655E0,5.0288205E0,2.3790085E0,7.6566787E0,1.9620244E2,4.839871E0,1.3556443E1,3.7858999E0,4.218866E0,3.0353951E0,1.9934253E0,1.1794343E0,1.1995741E0,6.6472974E0,1.0093809E0,1.5483131E2,4.137114E1,3.398044E0,1.4418269E0,1.0201262E0,1.2536317E1,1.0116879E0,2.774212E0,2.0739787E0,2.1448874E0,2.0173204E0,1.0180748E0,1.4922878E2,5.602533E0,3.2357E1,9.014141E0,2.2734795E0,1.1245646E0,1.7870255E0,1.0749291E1,1.0120883E0,1.1327991E0,1.4565631E2,3.5724669E0,1.8828871E0,3.719646E0,3.89437E0,2.8462627E1,7.2688756E0,1.7452651E0],"tree_param":{"num_deleted":"0","num_feature":"29","num_nodes":"51","size_leaf_vector":"1"}},{"base_weights":[-1.344524E-1,-2.4765515E-1,-2.6662315E-3,-4.6560612E-1,-1.0012031E-1,-5.2668285E-1,7.821386E-2,-7.561533E-2,-7.802318E-1,-1.452461E-1,3.4903842E-1,-7.61577E-1,2.3389474E-1,-1.5222661E-1,2.5790384E-1,8.3968693E-1,-3.5713756E-1,1.2738298E-1,-8.4277534E-1,-1.9037051E-1,8.130634E-1,-2.8646237E-1,-1.3628753E-1,-3.095987E-1,3.3367187E-1,8.7244934E-1,9.581002E-2,5.808216E-1,-2.5569457E-1,-4.7630367E-1,2.1457335E-1,-8.978395E-1,-1.3840663E-1,-4.458414E-3,-4.426896E-1,4.1469216E-1,-7.174695E-2,1.6786578E-1,-2.0923227E-1,3.0110168E-1,-5.0460804E-1,7.3318255E-1,-3.1368324E-1,1.4965097E0,4.191459E-2,-3.8919967E-2,9.637804E-1,-2.0379047E-1,1.3506229E-1,5.7656366E-2,-2.1612622E-1,-2.7965745E-1,-2.6649388E-2,1.1184443E-1,-1.7124915E-1,-1.7551346E-1,6.482461E-2,-1.5603054E-2,-2.1680109E-1,-1.7509805E-1,2.3800066E-1,-2.0518725E-1,7.125898E-2,3.6269116E-1,-4.0721064E-3,8.480899E-2,-2.210426E-1,-1.161113E-1,5.966332E-1,2.5376332E-1,-1.3282715E-1,-4.701999E-2,2.0519947E-1,-1.7404312E-1,4.428772E-1],"categories":[],"categories_nodes":[],"categories_segments":[],"categories_sizes":[],"default_left":[0,0,0,0,0,0,0,0,0,0,0,0,0,0,0,0,0,0,0,0,0,0,0,0,0,0,0,0,0,0,0,0,0,0,0,0,0,0,0,0,0,0,0,0,0,0,0,0,0,0,0,0,0,0,0,0,0,0,0,0,0,0,0,0,0,0,0,0,0,0,0,0,0,0,0],"id":8,"left_children":[1,3,5,7,9,11,13,15,17,19,-1,21,-1,23,25,27,29,-1,31,33,35,-1,37,39,41,43,45,-1,47,49,-1,51,53,55,57,-1,-1,-1,-1,59,61,63,65,67,69,71,73,-1,-1,-1,-1,-1,-1,-1,-1,-1,-1,-1,-1,-1,-1,-1,-1,-1,-1,-1,-1,-1,-1,-1,-1,-1,-1,-1,-1],"loss_changes":[3.3965292E0,3.8918867E0,4.543579E0,5.974061E0,4.4064283E0,4.991991E0,3.8859928E0,6.242492E0,2.400467E0,3.2960267E0,0E0,1.3994107E0,0E0,3.2637117E0,5.1529455E0,7.3683567E0,2.6842396E0,0E0,8.881855E-1,3.2903461E0,2.4008677E0,0E0,2.0125709E0,3.9316773E0,2.969479E0,5.559963E0,5.033256E0,0E0,1.426047E0,2.9298508E0,0E0,5.849819E-1,8.925794E-1,5.429998E0,3.2181458E0,0E0,0E0,0E0,0E0,4.0812297E0,3.414137E0,2.4501214E0,1.4050912E0,6.486203E0,2.5889482E0,3.3386183E0,5.428916E0,0E0,0E0,0E0,0E0,0E0,0E0,0E0,0E0,0E0,0E0,0E0,0E0,0E0,0E0,0E0,0E0,0E0,0E0,0E0,0E0,0E0,0E0,0E0,0E0,0E0,0E0,0E0,0E0],"parents":[2147483647,0,0,1,1,2,2,3,3,4,4,5,5,6,6,7,7,8,8,9,9,11,11,13,13,14,14,15,15,16,16,18,18,19,19,20,20,22,22,23,23,24,24,25,25,26,26,28,28,29,29,31,31,32,32,33,33,34,34,39,39,40,40,41,41,42,42,43,43,44,44,45,45,46,46],"right_children":[2,4,6,8,10,12,14,16,18,20,-1,22,-1,24,26,28,30,-1,32,34,36,-1,38,40,42,44,46,-1,48,50,-1,52,54,56,58,-1,-1,-1,-1,60,62,64,66,68,70,72,74,-1,-1,-1,-1,-1,-1,-1,-1,-1,-1,-1,-1,-1,-1,-1,-1,-1,-1,-1,-1,-1,-1,-1,-1,-1,-1,-1,-1],"split_conditions":[1E0,1.02E2,1.9E-1,5.3E0,5.46E-1,2E0,9E0,2.3E-1,6E0,4.98E-2,3.4903842E-1,2.91E2,2.3389474E-1,3.05E-1,-4.31E-1,-2.43E-1,1.77E2,1.2738298E-1,1.75E2,2.2173E4,6E1,-2.8646237E-1,6.9E1,8.4E-2,4E-1,2.16E0,7.45E1,5.808216E-1,3.29E-1,4.9E1,2.1457335E-1,7.05E1,1.09E1,1.15E-1,1.52E-1,4.1469216E-1,-7.174695E-2,1.6786578E-1,-2.0923227E-1,4.49E1,2.03E1,1E0,-2.1E-1,-8.03E-1,1.13E-1,3.61E0,8.8E-1,-2.0379047E-1,1.3506229E-1,5.7656366E-2,-2.1612622E-1,-2.7965745E-1,-2.6649388E-2,1.1184443E-1,-1.7124915E-1,-1.7551346E-1,6.482461E-2,-1.5603054E-2,-2.1680109E-1,-1.7509805E-1,2.3800066E-1,-2.0518725E-1,7.125898E-2,3.6269116E-1,-4.0721064E-3,8.480899E-2,-2.210426E-1,-1.161113E-1,5.966332E-1,2.5376332E-1,-1.3282715E-1,-4.701999E-2,2.0519947E-1,-1.7404312E-1,4.428772E-1],"split_indices":[28,7,23,3,8,18,6,23,13,15,0,7,0,8,14,14,13,0,13,12,22,0,13,8,8,19,17,0,14,13,0,22,4,8,8,0,0,0,0,17,4,0,14,14,8,19,19,0,0,0,0,0,0,0,0,0,0,0,0,0,0,0,0,0,0,0,0,0,0,0,0,0,0,0,0],"split_type":[0,0,0,0,0,0,0,0,0,0,0,0,0,0,0,0,0,0,0,0,0,0,0,0,0,0,0,0,0,0,0,0,0,0,0,0,0,0,0,0,0,0,0,0,0,0,0,0,0,0,0,0,0,0,0,0,0,0,0,0,0,0,0,0,0,0,0,0,0,0,0,0,0,0,0],"sum_hessian":[2.2671571E2,1.2148356E2,1.0523215E2,4.8168724E1,7.3314835E1,1.3333489E1,9.189866E1,2.2062155E1,2.610657E1,7.164139E1,1.6734478E0,1.1654823E1,1.6786662E0,4.0330418E1,5.1568245E1,4.7231846E0,1.733897E1,1.0026399E0,2.510393E1,6.918498E1,2.456402E0,8.500078E0,3.1547449E0,3.0737902E1,9.592515E0,9.84825E0,4.1719994E1,1.9769437E0,2.7462409E0,1.6105165E1,1.2338058E0,2.3028963E1,2.074967E0,4.0420376E1,2.8764608E1,1.3904647E0,1.0659374E0,1.4096305E0,1.7451143E0,7.3079486E0,2.3429953E1,5.8497815E0,3.7427335E0,5.1652446E0,4.6830053E0,3.6941013E1,4.778979E0,1.7398514E0,1.0063895E0,4.364932E0,1.1740233E1,2.194488E1,1.0840839E0,1.014019E0,1.0609479E0,1.0672246E1,2.974813E1,1.250339E1,1.6261219E1,2.5459723E0,4.7619762E0,1.8932909E1,4.4970427E0,3.1950965E0,2.6546848E0,1.6910893E0,2.0516443E0,1.114528E0,4.0507164E0,1.481036E0,3.2019696E0,3.2437843E1,4.5031724E0,1.1580667E0,3.620912E0],"tree_param":{"num_deleted":"0","num_feature":"29","num_nodes":"75","size_leaf_vector":"1"}},{"base_weights":[-1.0768857E-1,3.4633125E-4,-2.4472246E-1,5.7356775E-2,-4.0445662E-1,-5.2931947E-1,-1.2237927E-1,6.739779E-1,1.6734391E-2,-6.3048005E-1,3.674449E-1,-3.231327E-2,-6.9896406E-1,8.776304E-3,-7.4582726E-1,-2.6766375E-2,1.2682973E0,-6.6682115E-2,3.684968E-1,-8.19816E-1,1.7376514E-1,3.95932E-1,-4.043254E-1,-4.4858193E-1,7.940407E-1,-1.4861189E-1,-8.2337254E-1,-1.5373896E-1,4.5521164E-1,-4.7454327E-2,-2.9019928E-1,-1.8364006E-1,1.18908785E-1,7.125322E-2,5.097292E-1,-1.08746275E-1,8.6908484E-1,1.149812E0,8.173005E-2,-8.972385E-1,-1.927881E-2,1.2386035E-1,-3.9309382E-2,-1.6781735E-1,-1.3730427E-2,1.5944338E-1,-2.5013503E-1,-4.075504E-2,4.1475192E-1,1.6385905E-1,-2.1946763E-1,-2.9105523E-1,-3.384581E-1,6.4857686E-1,-2.5112438E-1,7.3873436E-1,-1.9532493E-1,-2.0706438E-1,2.695789E-1,6.4343736E-2,-8.198579E-2,4.0450476E-2,3.7987712E-1,5.0259215E-1,-1.6036297E-1,-2.5634995E-2,3.61475E-1,-2.856265E-1,-6.82309E-2,-2.3243679E-1,1.2575212E-1,4.0954387E-1,-1.9592601E-1,-2.610237E-1,-4.165629E-2,3.5985795E-1,-4.3399584E-2],"categories":[],"categories_nodes":[],"categories_segments":[],"categories_sizes":[],"default_left":[0,0,0,0,0,0,0,0,0,0,0,0,0,0,0,0,0,0,0,0,0,0,0,0,0,0,0,0,0,0,0,0,0,0,0,0,0,0,0,0,0,0,0,0,0,0,0,0,0,0,0,0,0,0,0,0,0,0,0,0,0,0,0,0,0,0,0,0,0,0,0,0,0,0,0,0,0],"id":9,"left_children":[1,3,5,7,9,11,13,15,17,19,21,23,25,27,29,31,33,35,37,39,41,-1,43,45,47,49,51,53,55,57,-1,-1,-1,-1,-1,59,61,63,65,67,-1,-1,-1,-1,-1,-1,-1,-1,-1,-1,-1,-1,69,71,73,75,-1,-1,-1,-1,-1,-1,-1,-1,-1,-1,-1,-1,-1,-1,-1,-1,-1,-1,-1,-1,-1],"loss_changes":[3.2422137E0,2.8722706E0,3.2967043E0,2.7212646E0,2.9122758E0,2.39927E0,5.633773E0,2.831374E0,3.0578103E0,2.0082116E0,3.5556645E0,3.2312136E0,1.3405437E0,4.26686E0,1.8062029E0,1.2486935E0,1.2195811E0,3.416861E0,4.379962E0,5.327349E-1,2.8439075E-1,0E0,1.432361E-1,2.7826796E0,1.9174597E0,2.4894052E0,8.9658356E-1,3.5347996E0,5.402383E0,3.0128005E0,0E0,0E0,0E0,0E0,0E0,4.4016976E0,9.20552E-1,5.573069E0,3.0478938E0,1.169548E-1,0E0,0E0,0E0,0E0,0E0,0E0,0E0,0E0,0E0,0E0,0E0,0E0,2.1543636E0,5.5089397E0,2.60357E0,5.4482274E0,0E0,0E0,0E0,0E0,0E0,0E0,0E0,0E0,0E0,0E0,0E0,0E0,0E0,0E0,0E0,0E0,0E0,0E0,0E0,0E0,0E0],"parents":[2147483647,0,0,1,1,2,2,3,3,4,4,5,5,6,6,7,7,8,8,9,9,10,10,11,11,12,12,13,13,14,14,15,15,16,16,17,17,18,18,19,19,20,20,22,22,23,23,24,24,25,25,26,26,27,27,28,28,29,29,35,35,36,36,37,37,38,38,39,39,52,52,53,53,54,54,55,55],"right_children":[2,4,6,8,10,12,14,16,18,20,22,24,26,28,30,32,34,36,38,40,42,-1,44,46,48,50,52,54,56,58,-1,-1,-1,-1,-1,60,62,64,66,68,-1,-1,-1,-1,-1,-1,-1,-1,-1,-1,-1,-1,70,72,74,76,-1,-1,-1,-1,-1,-1,-1,-1,-1,-1,-1,-1,-1,-1,-1,-1,-1,-1,-1,-1,-1],"split_conditions":[1E0,2.13E1,8.7E0,6E-1,2.82E1,1.01E0,9E-2,2.2E0,1.37E2,4.1E-1,-3.7E-1,4.34E-1,3.1E1,2.5E2,6.1E1,1.17E-1,1.1E1,4.91E-2,1.47E2,3.82E-1,1.33E0,3.95932E-1,6.08E1,6.1E-3,5.6E0,8.8E1,3.16E0,1.3E0,1E0,2.84E-2,-2.9019928E-1,-1.8364006E-1,1.18908785E-1,7.125322E-2,5.097292E-1,1.23E-2,4E-2,2.57E-2,1.17E1,1.41E0,-1.927881E-2,1.2386035E-1,-3.9309382E-2,-1.6781735E-1,-1.3730427E-2,1.5944338E-1,-2.5013503E-1,-4.075504E-2,4.1475192E-1,1.6385905E-1,-2.1946763E-1,-2.9105523E-1,2.7E-2,1.28E2,3E0,2.25E-1,-1.9532493E-1,-2.0706438E-1,2.695789E-1,6.4343736E-2,-8.198579E-2,4.0450476E-2,3.7987712E-1,5.0259215E-1,-1.6036297E-1,-2.5634995E-2,3.61475E-1,-2.856265E-1,-6.82309E-2,-2.3243679E-1,1.2575212E-1,4.0954387E-1,-1.9592601E-1,-2.610237E-1,-4.165629E-2,3.5985795E-1,-4.3399584E-2],"split_indices":[0,4,4,3,4,19,10,19,13,14,14,14,13,7,7,8,6,15,13,8,19,0,22,15,3,7,19,3,25,15,0,0,0,0,0,15,10,15,3,23,0,0,0,0,0,0,0,0,0,0,0,0,15,7,6,8,0,0,0,0,0,0,0,0,0,0,0,0,0,0,0,0,0,0,0,0,0],"split_type":[0,0,0,0,0,0,0,0,0,0,0,0,0,0,0,0,0,0,0,0,0,0,0,0,0,0,0,0,0,0,0,0,0,0,0,0,0,0,0,0,0,0,0,0,0,0,0,0,0,0,0,0,0,0,0,0,0,0,0,0,0,0,0,0,0,0,0,0,0,0,0,0,0,0,0,0,0],"sum_hessian":[2.1799702E2,1.22454056E2,9.554298E1,1.0808956E2,1.436449E1,2.7724108E1,6.781886E1,5.717059E0,1.02372505E2,1.1252743E1,3.111747E0,7.357978E0,2.036613E1,5.6846016E1,1.0972849E1,3.0618665E0,2.6551926E0,8.34045E1,1.8968006E1,9.092759E0,2.1599836E0,1.075084E0,2.0366628E0,5.197126E0,2.160852E0,4.159609E0,1.6206522E1,4.2155746E1,1.4690269E1,2.9346156E0,8.038233E0,1.0972377E0,1.9646289E0,1.2398632E0,1.4153295E0,8.066239E1,2.742109E0,4.2846417E0,1.4683364E1,8.07752E0,1.015239E0,1.0117388E0,1.1482449E0,1.0307688E0,1.0058942E0,1.3592006E0,3.8379254E0,1.1355718E0,1.0252802E0,1.9264883E0,2.2331207E0,1.1672002E1,4.534519E0,3.9503832E0,3.8205364E1,1.1957922E1,2.732348E0,1.908428E0,1.0261878E0,2.7107773E1,5.355462E1,1.4327956E0,1.3093135E0,3.2698624E0,1.0147793E0,1.3585204E1,1.0981598E0,7.076575E0,1.000945E0,2.863019E0,1.6715003E0,2.5163534E0,1.4340297E0,4.829584E0,3.337578E1,7.6235385E0,4.3343835E0],"tree_param":{"num_deleted":"0","num_feature":"29","num_nodes":"77","size_leaf_vector":"1"}},{"base_weights":[-8.6012706E-2,1.1760784E-2,-2.2390638E-1,-1.1180742E-1,2.3283333E-1,-1.1650243E-2,-4.4702202E-1,3.66235E-1,-2.0699169E-1,5.70151E-1,1.1789813E-1,-4.604237E-1,1.980922E-1,-5.1680464E-1,2.5014704E-1,1.3791087E-1,3.5249546E-1,4.6198882E-2,-4.322874E-1,8.948309E-1,-4.8143677E-2,-6.282693E-1,3.5687193E-1,4.4082254E-1,-5.311129E-1,-5.744208E-1,1.9144979E-1,-4.5556137E-1,5.276638E-1,5.069582E-1,-3.5004663E-1,-7.2279114E-1,-1.3672005E-1,3.3149667E-2,1.5167966E0,-4.5421064E-1,3.1299943E-1,1.2842776E-1,-8.686128E-1,2.5177833E-1,-7.5621836E-2,-3.4449843E-1,7.0324993E-1,-2.7152723E-1,3.7989384E-1,-7.340323E-1,-2.6048365E-1,2.6803055E-1,-1.8765219E-1,9.250525E-2,-2.388948E-1,2.478166E-1,-9.799208E-2,-1.599845E-1,2.311329E-1,-1.5800409E-1,1.6908121E-1,-2.5091386E-1,1.8048397E-1,-1.7587887E-1,1.4810973E-1,1.5937406E-1,-1.82402E-1,6.7789143E-1,1.3417652E-2,1.990904E-1,-1.725466E-1,-9.723565E-3,2.8806672E-1,-1.7879415E-1,2.0948681E-1,-1.19028855E-2,-2.8787985E-1,1.3850951E-1,-2.5037235E-1,2.4677138E-1,-1.819722E-1,-6.361259E-2,2.4384163E-1,-5.4951403E-2,-2.5028136E-1,4.2559028E-2,-2.3106803E-1],"categories":[],"categories_nodes":[],"categories_segments":[],"categories_sizes":[],"default_left":[0,0,0,0,0,0,0,0,0,0,0,0,0,0,0,0,0,0,0,0,0,0,0,0,0,0,0,0,0,0,0,0,0,0,0,0,0,0,0,0,0,0,0,0,0,0,0,0,0,0,0,0,0,0,0,0,0,0,0,0,0,0,0,0,0,0,0,0,0,0,0,0,0,0,0,0,0,0,0,0,0,0,0],"id":10,"left_children":[1,3,5,7,9,11,13,15,17,-1,19,21,23,25,-1,27,-1,29,31,33,35,37,39,41,43,45,47,49,51,53,55,57,59,61,63,65,67,69,71,-1,-1,73,75,-1,77,79,81,-1,-1,-1,-1,-1,-1,-1,-1,-1,-1,-1,-1,-1,-1,-1,-1,-1,-1,-1,-1,-1,-1,-1,-1,-1,-1,-1,-1,-1,-1,-1,-1,-1,-1,-1,-1],"loss_changes":[2.8624253E0,3.442424E0,4.1647086E0,3.7568254E0,8.432789E0,4.435226E0,4.265437E0,2.3851469E0,3.9047856E0,0E0,5.6313224E0,2.2819266E0,5.9247746E0,1.7953672E0,0E0,2.9906757E0,0E0,6.1969314E0,3.003725E0,4.0650244E0,5.5153418E0,2.4406805E0,1.14962E0,5.326034E0,3.2338953E0,1.7351761E0,2.7708876E0,1.6121465E0,2.217448E0,4.7010226E0,3.2529519E0,3.2094688E0,5.714836E0,1.6775188E0,4.7512484E0,2.7686281E0,4.4988613E0,2.0502205E0,7.047138E-1,0E0,0E0,3.0916133E0,3.4400206E0,0E0,9.854908E-1,1.2241278E0,3.0847576E0,0E0,0E0,0E0,0E0,0E0,0E0,0E0,0E0,0E0,0E0,0E0,0E0,0E0,0E0,0E0,0E0,0E0,0E0,0E0,0E0,0E0,0E0,0E0,0E0,0E0,0E0,0E0,0E0,0E0,0E0,0E0,0E0,0E0,0E0,0E0,0E0],"parents":[2147483647,0,0,1,1,2,2,3,3,4,4,5,5,6,6,7,7,8,8,10,10,11,11,12,12,13,13,15,15,17,17,18,18,19,19,20,20,21,21,22,22,23,23,24,24,25,25,26,26,27,27,28,28,29,29,30,30,31,31,32,32,33,33,34,34,35,35,36,36,37,37,38,38,41,41,42,42,44,44,45,45,46,46],"right_children":[2,4,6,8,10,12,14,16,18,-1,20,22,24,26,-1,28,-1,30,32,34,36,38,40,42,44,46,48,50,52,54,56,58,60,62,64,66,68,70,72,-1,-1,74,76,-1,78,80,82,-1,-1,-1,-1,-1,-1,-1,-1,-1,-1,-1,-1,-1,-1,-1,-1,-1,-1,-1,-1,-1,-1,-1,-1,-1,-1,-1,-1,-1,-1,-1,-1,-1,-1,-1,-1],"split_conditions":[6.17E1,2.17E2,1.42E2,1E0,2.23E2,1.22E-1,5.05E-1,1.9E-1,-3.3E-2,5.70151E-1,6.5E-2,3.61E0,3.3019E4,7.18E1,2.5014704E-1,1.78E-2,3.5249546E-1,1.72E-2,2.196E4,2.39E0,-1.2E-2,1.03E0,3.93E0,6.39E1,2.99E-2,5.33E1,1.82E0,-4.81E-1,1.7E1,3.4E-3,3.6E-1,1E0,1.2E1,-1.8E-1,3.43E2,-1.064E0,5.91E1,7.8E1,2.6E1,2.5177833E-1,-7.5621836E-2,-1.76E-1,1.93E0,-2.7152723E-1,1E0,8.8E-2,1.2E1,2.6803055E-1,-1.8765219E-1,9.250525E-2,-2.388948E-1,2.478166E-1,-9.799208E-2,-1.599845E-1,2.311329E-1,-1.5800409E-1,1.6908121E-1,-2.5091386E-1,1.8048397E-1,-1.7587887E-1,1.4810973E-1,1.5937406E-1,-1.82402E-1,6.7789143E-1,1.3417652E-2,1.990904E-1,-1.725466E-1,-9.723565E-3,2.8806672E-1,-1.7879415E-1,2.0948681E-1,-1.19028855E-2,-2.8787985E-1,1.3850951E-1,-2.5037235E-1,2.4677138E-1,-1.819722E-1,-6.361259E-2,2.4384163E-1,-5.4951403E-2,-2.5028136E-1,4.2559028E-2,-2.3106803E-1],"split_indices":[22,7,7,1,7,8,8,10,14,0,8,19,12,22,0,15,0,15,12,19,14,19,19,22,15,17,19,14,6,15,8,24,6,14,7,14,22,13,13,0,0,14,23,0,26,8,6,0,0,0,0,0,0,0,0,0,0,0,0,0,0,0,0,0,0,0,0,0,0,0,0,0,0,0,0,0,0,0,0,0,0,0,0],"split_type":[0,0,0,0,0,0,0,0,0,0,0,0,0,0,0,0,0,0,0,0,0,0,0,0,0,0,0,0,0,0,0,0,0,0,0,0,0,0,0,0,0,0,0,0,0,0,0,0,0,0,0,0,0,0,0,0,0,0,0,0,0,0,0,0,0,0,0,0,0,0,0,0,0,0,0,0,0,0,0,0,0,0,0],"sum_hessian":[2.111138E2,1.2406221E2,8.705158E1,7.9897736E1,4.4164482E1,4.515069E1,4.1900898E1,1.2794166E1,6.710357E1,1.845886E0,4.2318596E1,1.400017E1,3.1150518E1,4.0301704E1,1.599191E0,1.0890198E1,1.9039679E0,3.1970074E1,3.513349E1,6.6787243E0,3.563987E1,1.1806738E1,2.193432E0,2.3667725E1,7.482794E0,3.744457E1,2.8571382E0,4.2499704E0,6.6402273E0,1.4652527E1,1.7317547E1,1.698956E1,1.8143934E1,3.2413728E0,3.4373512E0,1.6655186E1,1.8984684E1,2.9583437E0,8.848394E0,1.0128547E0,1.1805774E0,5.8496757E0,1.7818048E1,5.3096294E0,2.1731644E0,2.3936605E1,1.3507962E1,1.4863507E0,1.3707876E0,1.3403143E0,2.909656E0,4.945817E0,1.6944101E0,2.7543557E0,1.1898171E1,1.486691E1,2.4506373E0,1.59869175E1,1.0026411E0,1.0632263E1,7.511671E0,1.9206754E0,1.3206974E0,1.9289513E0,1.5084E0,1.1879864E0,1.5467199E1,1.2997874E1,5.986811E0,1.2823659E0,1.6759778E0,1.0172029E0,7.8311915E0,2.2334523E0,3.6162233E0,1.6671335E1,1.1467133E0,1.1334933E0,1.0396711E0,4.120394E0,1.981621E1,7.95258E0,5.5553827E0],"tree_param":{"num_deleted":"0","num_feature":"29","num_nodes":"83","size_leaf_vector":"1"}},{"base_weights":[-7.371461E-2,1.7598616E-2,-1.9524017E-1,-4.4463852E-1,6.2367085E-2,-4.5680588E-1,-9.3903095E-2,1.9954138E-1,-7.4522763E-1,3.4765574E-1,-2.5608603E-2,-5.7184094E-1,1.7304866E-1,8.023377E-3,-6.6714036E-1,-2.811363E-1,5.0846696E-2,-4.4318762E-1,5.524105E-1,2.3618205E-1,-1.4075676E-1,-6.6754776E-1,7.9516456E-2,3.241489E-1,-4.4845465E-1,-5.5771565E-1,9.379972E-2,-4.557522E-2,-2.7368096E-1,-2.653589E-1,2.3116507E-1,1.1496778E-2,8.734913E-1,-1.8735876E-2,9.3685466E-1,7.8194596E-2,-4.2768684E-1,-8.1389546E-1,-9.0060465E-2,-1.8568227E-1,-6.273341E-3,-1.1352699E-1,-2.4629326E-1,2.7757218E-1,-2.7492097E-1,-1.8984091E-1,1.8893924E-1,1.6345376E-1,-1.4406434E-1,3.573471E-1,-1.1958825E-2,2.7855733E-1,-4.9471978E-2,-1.2294748E-1,4.0764007E-1,8.114228E-2,-2.3815069E-1,6.653003E-2,-1.9633989E-1,-6.7488635E-3,-2.6914564E-1,1.8448448E-1,-2.1464866E-1,1.0463459E-1,-1.8093336E-1,-5.7043716E-2,1.4016536E-1,9.067804E-2,-1.9097023E-1],"categories":[],"categories_nodes":[],"categories_segments":[],"categories_sizes":[],"default_left":[0,0,0,0,0,0,0,0,0,0,0,0,0,0,0,0,0,0,0,0,0,0,0,0,0,0,0,0,0,0,0,0,0,0,0,0,0,0,0,0,0,0,0,0,0,0,0,0,0,0,0,0,0,0,0,0,0,0,0,0,0,0,0,0,0,0,0,0,0],"id":11,"left_children":[1,3,5,7,9,11,13,-1,15,17,19,21,23,25,27,-1,-1,29,31,33,35,37,-1,-1,39,41,43,45,-1,-1,-1,47,49,51,53,55,57,59,61,-1,-1,63,-1,65,67,-1,-1,-1,-1,-1,-1,-1,-1,-1,-1,-1,-1,-1,-1,-1,-1,-1,-1,-1,-1,-1,-1,-1,-1],"loss_changes":[2.2862215E0,2.477337E0,2.2986498E0,4.023517E0,2.7395988E0,1.867526E0,3.7990913E0,0E0,1.7022748E0,4.408308E0,2.5680377E0,1.8487039E0,3.0434742E0,2.7754557E0,1.4537363E0,0E0,0E0,3.811378E0,3.6144347E0,4.6723533E0,3.7417283E0,1.533659E0,0E0,0E0,2.3485422E-1,7.8757524E-1,3.436156E0,1.9168438E0,0E0,0E0,0E0,2.5660057E0,3.8431969E0,2.9346757E0,4.5183525E0,5.9700713E0,3.9306092E0,9.711437E-1,2.630908E0,0E0,0E0,1.1074141E0,0E0,3.0681846E0,3.7399144E0,0E0,0E0,0E0,0E0,0E0,0E0,0E0,0E0,0E0,0E0,0E0,0E0,0E0,0E0,0E0,0E0,0E0,0E0,0E0,0E0,0E0,0E0,0E0,0E0],"parents":[2147483647,0,0,1,1,2,2,3,3,4,4,5,5,6,6,8,8,9,9,10,10,11,11,12,12,13,13,14,14,17,17,18,18,19,19,20,20,21,21,24,24,25,25,26,26,27,27,31,31,32,32,33,33,34,34,35,35,36,36,37,37,38,38,41,41,43,43,44,44],"right_children":[2,4,6,8,10,12,14,-1,16,18,20,22,24,26,28,-1,-1,30,32,34,36,38,-1,-1,40,42,44,46,-1,-1,-1,48,50,52,54,56,58,60,62,-1,-1,64,-1,66,68,-1,-1,-1,-1,-1,-1,-1,-1,-1,-1,-1,-1,-1,-1,-1,-1,-1,-1,-1,-1,-1,-1,-1,-1],"split_conditions":[1E0,3.6E-3,8.7E0,6E-4,1.04E-2,6.71E1,9E-2,1.9954138E-1,2.8E-1,1.22E0,1E0,3.2E1,6.74E1,6.5E-1,6.1E1,-2.811363E-1,5.0846696E-2,9.4E-3,4.01E1,1.4E2,6.15E1,4.65E-1,7.9516456E-2,3.241489E-1,2.1E0,-1.19E-1,1.03E2,2.84E-2,-2.7368096E-1,-2.653589E-1,2.3116507E-1,1.02E2,1.5E1,1.54E1,-3.17E-1,3.46E0,-3.26E-1,7E-1,5.78E-1,-1.8568227E-1,-6.273341E-3,1E0,-2.4629326E-1,4E-1,4.3E-1,-1.8984091E-1,1.8893924E-1,1.6345376E-1,-1.4406434E-1,3.573471E-1,-1.1958825E-2,2.7855733E-1,-4.9471978E-2,-1.2294748E-1,4.0764007E-1,8.114228E-2,-2.3815069E-1,6.653003E-2,-1.9633989E-1,-6.7488635E-3,-2.6914564E-1,1.8448448E-1,-2.1464866E-1,1.0463459E-1,-1.8093336E-1,-5.7043716E-2,1.4016536E-1,9.067804E-2,-1.9097023E-1],"split_indices":[0,15,4,15,15,22,10,0,10,19,2,6,22,19,7,0,0,15,17,13,22,14,0,0,19,14,13,15,0,0,0,7,6,17,14,19,14,4,14,0,0,28,0,23,23,0,0,0,0,0,0,0,0,0,0,0,0,0,0,0,0,0,0,0,0,0,0,0,0],"split_type":[0,0,0,0,0,0,0,0,0,0,0,0,0,0,0,0,0,0,0,0,0,0,0,0,0,0,0,0,0,0,0,0,0,0,0,0,0,0,0,0,0,0,0,0,0,0,0,0,0,0,0,0,0,0,0,0,0,0,0,0,0,0,0,0,0,0,0,0,0],"sum_hessian":[2.0471397E2,1.1737479E2,8.733918E1,9.575475E0,1.0779931E2,2.3409101E1,6.393008E1,1.7823284E0,7.7931466E0,2.4711813E1,8.30875E1,1.9871862E1,3.5372403E0,5.5115993E1,8.814089E0,6.4215183E0,1.3716283E0,4.842746E0,1.9869068E1,2.5060667E1,5.8026833E1,1.801413E1,1.8577316E0,1.1376517E0,2.3995886E0,6.532016E0,4.8583977E1,2.8283288E0,5.98576E0,3.7502918E0,1.0924541E0,7.7867703E0,1.2082297E1,1.9088991E1,5.9716754E0,3.3324764E1,2.4702068E1,1.4045361E1,3.9687696E0,1.3954676E0,1.0041211E0,2.9633439E0,3.568672E0,3.2588757E1,1.5995218E1,1.5466061E0,1.2817228E0,3.6834006E0,4.1033697E0,8.738781E0,3.3435163E0,1.8363279E0,1.7252665E1,1.4315314E0,4.540144E0,2.7869473E1,5.4552894E0,6.3989067E0,1.8303162E1,1.4578556E0,1.2587505E1,1.8735812E0,2.0951884E0,1.6720452E0,1.2912986E0,9.40091E0,2.3187847E1,6.224786E0,9.770432E0],"tree_param":{"num_deleted":"0","num_feature":"29","num_nodes":"69","size_leaf_vector":"1"}},{"base_weights":[-6.7292E-2,-3.4675624E-2,-3.6607754E-1,-3.6153193E-3,-3.9829463E-1,-6.99785E-1,-1.3631508E-1,-3.3706315E-2,4.572162E-1,-5.5227375E-1,2.0150794E-1,6.383918E-2,-2.6760837E-1,4.3426546E-1,-4.754151E-1,5.7709392E-2,-1.7573382E-1,8.791076E-1,-3.2585296E-1,7.3901676E-2,-7.1332383E-1,-1.6638394E-1,8.2013184E-1,-7.3576766E-1,7.698301E-2,-7.018946E-2,3.393548E-1,-8.221705E-2,-5.6647974E-1,1.4773841E0,2.5211474E-1,-1.7141357E-1,7.5510114E-2,-8.474728E-1,8.0323786E-2,3.6565277E-1,3.721311E-3,-2.570063E-1,-1.0724109E-2,-1.1484141E-1,2.956268E-2,4.728676E-2,3.3049774E-1,1.0775534E-2,-1.882257E-1,-2.359087E-1,1.1683903E-1,5.561717E-1,1.01830885E-1,-1.05431706E-1,3.4544715E-1,-2.7795893E-1,-1.9706948E-2],"categories":[],"categories_nodes":[],"categories_segments":[],"categories_sizes":[],"default_left":[0,0,0,0,0,0,0,0,0,0,0,0,0,0,0,0,0,0,0,0,0,0,0,0,0,0,0,0,0,0,0,0,0,0,0,0,0,0,0,0,0,0,0,0,0,0,0,0,0,0,0,0,0],"id":12,"left_children":[1,3,5,7,9,11,13,15,17,19,-1,-1,-1,21,23,25,27,29,31,-1,33,-1,35,37,-1,39,41,43,45,47,49,-1,-1,51,-1,-1,-1,-1,-1,-1,-1,-1,-1,-1,-1,-1,-1,-1,-1,-1,-1,-1,-1],"loss_changes":[1.9495189E0,2.0612907E0,1.4160018E0,2.362708E0,2.7375066E0,1.5575218E0,2.7055194E0,2.0852935E0,3.7369287E0,1.8613336E0,0E0,0E0,0E0,2.4914517E0,1.8237907E0,3.5537512E0,2.2495327E0,2.275034E0,7.658268E-1,0E0,1.6960673E0,0E0,1.351232E0,5.269172E-1,0E0,3.6361527E0,4.08968E0,3.363452E0,2.821156E0,8.300004E-1,2.929873E0,0E0,0E0,5.6091785E-1,0E0,0E0,0E0,0E0,0E0,0E0,0E0,0E0,0E0,0E0,0E0,0E0,0E0,0E0,0E0,0E0,0E0,0E0,0E0],"parents":[2147483647,0,0,1,1,2,2,3,3,4,4,5,5,6,6,7,7,8,8,9,9,13,13,14,14,15,15,16,16,17,17,18,18,20,20,22,22,23,23,25,25,26,26,27,27,28,28,29,29,30,30,33,33],"right_children":[2,4,6,8,10,12,14,16,18,20,-1,-1,-1,22,24,26,28,30,32,-1,34,-1,36,38,-1,40,42,44,46,48,50,-1,-1,52,-1,-1,-1,-1,-1,-1,-1,-1,-1,-1,-1,-1,-1,-1,-1,-1,-1,-1,-1],"split_conditions":[1E0,4.5E-1,1.79E0,2.4E-1,2E0,3E0,5.68E1,9.6E1,1.94E2,1.0938E4,2.0150794E-1,6.383918E-2,-2.6760837E-1,4.7E0,6.92E1,1.02E0,1.22E0,3.1E-1,9.7E1,7.3901676E-2,7.87E1,-1.6638394E-1,1.27E-2,2.6E1,7.698301E-2,3.77E1,8E1,3.17E-1,3.31E-1,2.45E-1,3.2929E4,-1.7141357E-1,7.5510114E-2,3.96E0,8.0323786E-2,3.6565277E-1,3.721311E-3,-2.570063E-1,-1.0724109E-2,-1.1484141E-1,2.956268E-2,4.728676E-2,3.3049774E-1,1.0775534E-2,-1.882257E-1,-2.359087E-1,1.1683903E-1,5.561717E-1,1.01830885E-1,-1.05431706E-1,3.4544715E-1,-2.7795893E-1,-1.9706948E-2],"split_indices":[25,10,19,10,18,3,22,13,7,12,0,0,0,3,22,23,23,10,13,0,17,0,15,6,0,17,13,8,8,8,12,0,0,19,0,0,0,0,0,0,0,0,0,0,0,0,0,0,0,0,0,0,0],"split_type":[0,0,0,0,0,0,0,0,0,0,0,0,0,0,0,0,0,0,0,0,0,0,0,0,0,0,0,0,0,0,0,0,0,0,0,0,0,0,0,0,0,0,0,0,0,0,0,0,0,0,0,0,0],"sum_hessian":[2.0034969E2,1.816376E2,1.8712076E1,1.6827364E2,1.3363977E1,6.795944E0,1.1916131E1,1.5882938E2,9.444252E0,1.2105725E1,1.2582525E0,1.1639104E0,5.632034E0,4.3373413E0,7.57879E0,9.699343E1,6.183595E1,6.057845E0,3.3864071E0,1.9427023E0,1.0163023E1,1.0946665E0,3.2426748E0,5.586706E0,1.9920841E0,6.721914E1,2.9774296E1,5.0871372E1,1.0964576E1,2.4058661E0,3.6519787E0,2.3837392E0,1.002668E0,9.060313E0,1.1027093E0,1.8302492E0,1.4124255E0,4.572977E0,1.0137289E0,2.3118309E1,4.4100826E1,2.5017038E1,4.757257E0,4.2579315E1,8.292056E0,9.0583935E0,1.9061819E0,1.3349841E0,1.0708822E0,2.5499785E0,1.1020002E0,8.060095E0,1.0002185E0],"tree_param":{"num_deleted":"0","num_feature":"29","num_nodes":"53","size_leaf_vector":"1"}},{"base_weights":[-5.227012E-2,-1.0734695E-3,-2.534804E-1,-3.883207E-2,1.1547564E0,-4.8528537E-1,1.9934578E-1,8.397235E-3,-5.737082E-1,1.4581973E-2,1.5027593E0,-6.940292E-1,-5.443764E-2,9.0377885E-1,-2.0657322E-1,-3.304164E-2,9.651303E-1,-8.593585E-1,3.2452622E-1,6.8922274E-2,6.078992E-1,9.2543066E-2,-7.987085E-1,4.6247545E-1,-4.5913956E-1,-3.22624E-2,1.4721056E0,-4.3475232E-1,2.3490344E-1,3.9300177E-2,-3.2920942E-1,-1.0940728E-2,1.3513314E0,-2.8456578E-1,-1.4779791E-2,2.3172055E-1,-7.3883735E-2,-3.5610813E-1,-9.153721E-1,3.2743877E-1,-1.08895026E-1,1.1527913E-1,-2.4297844E-1,1.3532759E-1,5.278512E-1,-7.387952E-1,1.2987633E-1,-1.14186235E-1,3.6258277E-2,2.641934E-1,-1.4449073E-1,5.689542E-1,9.170619E-2,1.3496947E-1,-2.0106828E-1,-2.9492706E-1,-7.990394E-2,-6.2428486E-2,1.209259E-1,-2.49259E-2,-2.5874496E-1,-1.7075905E-1,1.9250347E-1],"categories":[],"categories_nodes":[],"categories_segments":[],"categories_sizes":[],"default_left":[0,0,0,0,0,0,0,0,0,0,0,0,0,0,0,0,0,0,0,0,0,0,0,0,0,0,0,0,0,0,0,0,0,0,0,0,0,0,0,0,0,0,0,0,0,0,0,0,0,0,0,0,0,0,0,0,0,0,0,0,0,0,0],"id":13,"left_children":[1,3,5,7,9,11,13,15,17,-1,19,21,23,25,27,29,31,33,35,-1,-1,-1,37,39,41,-1,43,45,-1,47,49,-1,51,-1,-1,-1,-1,53,55,-1,-1,57,-1,-1,-1,59,61,-1,-1,-1,-1,-1,-1,-1,-1,-1,-1,-1,-1,-1,-1,-1,-1],"loss_changes":[2.0279593E0,6.938574E0,4.2882833E0,3.8933604E0,1.8630266E0,2.3637805E0,4.2554083E0,5.678504E0,3.4870582E0,0E0,2.0621805E0,2.1251173E0,2.2624817E0,3.2550502E0,2.562592E0,2.9584937E0,2.3492622E0,6.5853786E-1,1.1470635E0,0E0,0E0,0E0,5.254259E-1,2.8892076E0,1.3020568E0,0E0,2.3847055E-1,1.5792304E0,0E0,3.86083E0,5.420887E0,0E0,1.8815389E0,0E0,0E0,0E0,0E0,1.5867665E0,2.836895E-1,0E0,0E0,3.7702066E-1,0E0,0E0,0E0,3.9594626E-1,1.7515382E0,0E0,0E0,0E0,0E0,0E0,0E0,0E0,0E0,0E0,0E0,0E0,0E0,0E0,0E0,0E0,0E0],"parents":[2147483647,0,0,1,1,2,2,3,3,4,4,5,5,6,6,7,7,8,8,10,10,11,11,12,12,13,13,14,14,15,15,16,16,17,17,18,18,22,22,23,23,24,24,26,26,27,27,29,29,30,30,32,32,37,37,38,38,41,41,45,45,46,46],"right_children":[2,4,6,8,10,12,14,16,18,-1,20,22,24,26,28,30,32,34,36,-1,-1,-1,38,40,42,-1,44,46,-1,48,50,-1,52,-1,-1,-1,-1,54,56,-1,-1,58,-1,-1,-1,60,62,-1,-1,-1,-1,-1,-1,-1,-1,-1,-1,-1,-1,-1,-1,-1,-1],"split_conditions":[3.3118E4,3.306E4,2.67E-2,7.44E-1,9.3E0,2.2E2,3.6E-1,6.67E-1,3.1E2,1.4581973E-2,1.1E1,1.3E0,6.5807E4,2.1E-1,1.31795E5,3.11E-2,1.1192E4,9.3E0,6E0,6.8922274E-2,6.078992E-1,9.2543066E-2,5E0,1.5E-1,5.87E1,-3.22624E-2,1E0,1.69E-1,2.3490344E-1,2.9E1,5E0,-1.0940728E-2,6.3E0,-2.8456578E-1,-1.4779791E-2,2.3172055E-1,-7.3883735E-2,1.39E0,1.78E2,3.2743877E-1,-1.08895026E-1,1.94E-1,-2.4297844E-1,1.3532759E-1,5.278512E-1,4.4E1,1E0,-1.14186235E-1,3.6258277E-2,2.641934E-1,-1.4449073E-1,5.689542E-1,9.170619E-2,1.3496947E-1,-2.0106828E-1,-2.9492706E-1,-7.990394E-2,-6.2428486E-2,1.209259E-1,-2.49259E-2,-2.5874496E-1,-1.7075905E-1,1.9250347E-1],"split_indices":[12,12,15,14,4,7,23,14,7,0,6,4,12,23,12,15,12,3,6,0,0,0,6,8,22,0,2,14,0,13,13,0,3,0,0,0,0,19,7,0,0,14,0,0,0,13,28,0,0,0,0,0,0,0,0,0,0,0,0,0,0,0,0],"split_type":[0,0,0,0,0,0,0,0,0,0,0,0,0,0,0,0,0,0,0,0,0,0,0,0,0,0,0,0,0,0,0,0,0,0,0,0,0,0,0,0,0,0,0,0,0,0,0,0,0,0,0,0,0,0,0,0,0,0,0,0,0,0,0],"sum_hessian":[1.9589098E2,1.5695909E2,3.8931885E1,1.529296E2,4.0294943E0,2.570277E1,1.3229113E1,1.4142604E2,1.1503552E1,1.2370677E0,2.7924268E0,1.690266E1,8.80011E0,4.387877E0,8.841236E0,1.3648016E2,4.945886E0,8.760787E0,2.742765E0,1.2330842E0,1.5593425E0,1.4140007E0,1.548866E1,3.801639E0,4.998471E0,1.8703756E0,2.5175014E0,7.6402206E0,1.2010154E0,1.10384895E2,2.6095264E1,1.6283598E0,3.3175263E0,7.7378983E0,1.0228887E0,1.3389751E0,1.4037899E0,4.076312E0,1.1412348E1,1.9746991E0,1.8269401E0,2.1496975E0,2.8487732E0,1.1173977E0,1.4001037E0,4.7655764E0,2.874644E0,1.7356594E1,9.3028305E1,2.385256E0,2.3710007E1,1.6457366E0,1.6717896E0,1.0219123E0,3.0544E0,9.86802E0,1.5443275E0,1.1427227E0,1.0069748E0,1.0215827E0,3.7439938E0,1.1676294E0,1.7070147E0],"tree_param":{"num_deleted":"0","num_feature":"29","num_nodes":"63","size_leaf_vector":"1"}},{"base_weights":[-3.9233327E-2,-3.6777854E-1,-1.3379938E-2,5.000306E-1,-5.978822E-1,-2.568851E-1,3.1677656E-2,3.5279682E-1,-9.927914E-2,9.096177E-2,-7.171052E-1,-6.355647E-1,-4.3480054E-2,6.614167E-1,1.0660111E-2,-8.358416E-1,-3.8507653E-3,1.056896E-1,-7.842011E-1,2.7473652E-1,-6.452323E-1,-8.2764834E-2,1.1636817E0,-4.5385626E-1,4.946103E-2,-5.385213E-2,-2.76724E-1,-3.2620662E-1,-2.7112195E-1,-3.289814E-1,6.731175E-1,4.809891E-2,-2.6411757E-1,8.35141E-2,4.26362E-1,-6.7478895E-2,-2.609235E-1,-1.5826273E-1,1.3036357E-1,3.3805646E-2,-1.9367187E-1,-1.8767878E-1,1.1143885E-1,4.6192604E-1,4.7012694E-2,-1.2835835E-1,1.9897212E-1,-1.6259359E-1,3.2177273E-2,-1.4583057E-1,5.304114E-2],"categories":[],"categories_nodes":[],"categories_segments":[],"categories_sizes":[],"default_left":[0,0,0,0,0,0,0,0,0,0,0,0,0,0,0,0,0,0,0,0,0,0,0,0,0,0,0,0,0,0,0,0,0,0,0,0,0,0,0,0,0,0,0,0,0,0,0,0,0,0,0],"id":14,"left_children":[1,3,5,7,9,11,13,-1,-1,-1,15,17,19,21,23,25,-1,-1,27,29,31,-1,33,35,37,-1,-1,39,-1,41,43,-1,-1,-1,-1,45,-1,47,49,-1,-1,-1,-1,-1,-1,-1,-1,-1,-1,-1,-1],"loss_changes":[1.6311058E0,3.097183E0,1.9786257E0,2.3446972E0,1.4562802E0,2.247456E0,2.0106266E0,0E0,0E0,0E0,8.65747E-1,1.7554173E0,3.830687E0,2.6311693E0,2.6996195E0,3.4316206E-1,0E0,0E0,2.0155048E-1,3.3916123E0,1.4478986E0,0E0,3.7647772E-1,1.7971191E0,2.3395636E0,0E0,0E0,5.5511326E-1,0E0,1.4606299E0,3.4595153E0,0E0,0E0,0E0,0E0,2.1458466E0,0E0,4.04485E0,2.9447482E0,0E0,0E0,0E0,0E0,0E0,0E0,0E0,0E0,0E0,0E0,0E0,0E0],"parents":[2147483647,0,0,1,1,2,2,3,3,4,4,5,5,6,6,10,10,11,11,12,12,13,13,14,14,15,15,18,18,19,19,20,20,22,22,23,23,24,24,27,27,29,29,30,30,35,35,37,37,38,38],"right_children":[2,4,6,8,10,12,14,-1,-1,-1,16,18,20,22,24,26,-1,-1,28,30,32,-1,34,36,38,-1,-1,40,-1,42,44,-1,-1,-1,-1,46,-1,48,50,-1,-1,-1,-1,-1,-1,-1,-1,-1,-1,-1,-1],"split_conditions":[3.4E-3,1.0967E4,1.0967E4,1E0,1E0,1.37E-1,1.1E4,3.5279682E-1,-9.927914E-2,9.096177E-2,6.71E1,9E-2,1.94E2,1.58E2,4.1E-1,6E-4,-3.8507653E-3,1.056896E-1,9.7E-3,5.5E-1,1.0751E4,-8.2764834E-2,2.05E-2,1.1E1,3.47E1,-5.385213E-2,-2.76724E-1,7.6E1,-2.7112195E-1,1.99E1,-3.26E-1,4.809891E-2,-2.6411757E-1,8.35141E-2,4.26362E-1,8E0,-2.609235E-1,1.97E0,-7.85E-1,3.3805646E-2,-1.9367187E-1,-1.8767878E-1,1.1143885E-1,4.6192604E-1,4.7012694E-2,-1.2835835E-1,1.9897212E-1,-1.6259359E-1,3.2177273E-2,-1.4583057E-1,5.304114E-2],"split_indices":[15,12,12,2,3,8,12,0,0,0,22,23,7,7,19,15,0,0,15,23,12,0,15,6,17,0,0,13,0,4,14,0,0,0,0,6,0,19,14,0,0,0,0,0,0,0,0,0,0,0,0],"split_type":[0,0,0,0,0,0,0,0,0,0,0,0,0,0,0,0,0,0,0,0,0,0,0,0,0,0,0,0,0,0,0,0,0,0,0,0,0,0,0,0,0,0,0,0,0,0,0,0,0,0,0],"sum_hessian":[1.9160951E2,1.3013116E1,1.785964E2,2.481471E0,1.0531645E1,2.7152832E1,1.5144357E2,1.1393952E0,1.3420757E0,1.0502992E0,9.481346E0,9.07369E0,1.8079142E1,3.9071026E0,1.4753647E2,7.953589E0,1.5277572E0,1.0074955E0,8.066195E0,1.2181044E1,5.8980985E0,1.5204482E0,2.3866544E0,1.0549002E1,1.3698746E2,1.2850003E0,6.6685886E0,2.4413633E0,5.624831E0,4.9117866E0,7.269257E0,1.4046258E0,4.4934726E0,1.0067391E0,1.3799152E0,6.071027E0,4.4779754E0,3.8129837E1,9.885763E1,1.3008358E0,1.1405275E0,3.5256507E0,1.3861359E0,1.9743122E0,5.2949452E0,4.343385E0,1.7276412E0,1.5168266E1,2.296157E1,6.2622914E0,9.259534E1],"tree_param":{"num_deleted":"0","num_feature":"29","num_nodes":"51","size_leaf_vector":"1"}},{"base_weights":[-3.5401393E-2,-7.272642E-2,1.7929208E-1,-3.1989956E-1,-1.7044302E-2,1.0320088E0,6.93324E-4,-5.3814447E-1,3.1171125E-1,4.0967456E-1,-7.003089E-2,4.439599E-1,-7.643495E-2,7.436319E-1,-2.2011174E-1,-5.8428857E-2,-7.2461927E-1,-2.0656501E-1,6.83525E-1,-2.7201363E-1,8.074571E-1,-2.0063016E-1,5.9367675E-2,1.3238168E0,-1.11636594E-1,2.0288749E-1,-4.574338E-1,5.343073E-1,-4.7257417E-1,-8.785676E-1,-3.2984367E-1,-1.6960385E-1,1.0460782E0,-6.9839E-1,2.1794118E-1,1.1724555E0,-1.2561353E-1,-5.8167654E-1,-4.732926E-2,-3.0114958E-1,1.7628178E-1,3.9488744E-2,5.566299E-1,6.423949E-1,-2.1721965E-1,-6.6899925E-1,1.3835509E-1,-9.7578175E-2,3.8594463E-1,7.926105E-2,-2.3476712E-1,-3.8995795E-2,-2.8327724E-1,1.0755003E-1,-1.9896066E-1,4.2539233E-1,1.5441636E-3,-2.394789E-1,-4.6938732E-2,3.6308557E-2,4.658873E-1,7.025472E-2,-2.2349621E-1,-1.9542953E-1,2.0004101E-2,5.621779E-2,-1.9506165E-1,-4.63131E-2,1.07907474E-1,8.848707E-3,3.7774977E-1,-2.810076E-1,-2.3331406E-2],"categories":[],"categories_nodes":[],"categories_segments":[],"categories_sizes":[],"default_left":[0,0,0,0,0,0,0,0,0,0,0,0,0,0,0,0,0,0,0,0,0,0,0,0,0,0,0,0,0,0,0,0,0,0,0,0,0,0,0,0,0,0,0,0,0,0,0,0,0,0,0,0,0,0,0,0,0,0,0,0,0,0,0,0,0,0,0,0,0,0,0,0,0],"id":15,"left_children":[1,3,5,7,9,11,13,15,17,19,21,-1,-1,23,25,27,29,-1,31,33,35,37,39,41,-1,43,45,47,49,51,53,-1,55,57,-1,59,-1,61,63,65,67,-1,-1,69,-1,71,-1,-1,-1,-1,-1,-1,-1,-1,-1,-1,-1,-1,-1,-1,-1,-1,-1,-1,-1,-1,-1,-1,-1,-1,-1,-1,-1],"loss_changes":[1.538338E0,2.2360566E0,4.336489E0,4.287591E0,3.0579393E0,3.218904E0,4.190634E0,1.9774599E0,3.5606096E0,4.272049E0,2.0403671E0,0E0,0E0,4.281269E0,2.0699606E0,2.0709674E0,6.9301224E-1,0E0,3.5610743E0,3.1703153E0,4.8274465E0,3.4754248E0,2.6269326E0,2.3351774E0,0E0,3.6311893E0,2.8202786E0,2.691887E0,1.3239253E0,4.1980362E-1,1.6462245E0,0E0,2.096274E0,1.3993692E-1,0E0,2.9045734E0,0E0,2.4549184E0,3.063635E0,2.734822E0,2.8902326E0,0E0,0E0,2.155986E0,0E0,1.6542811E0,0E0,0E0,0E0,0E0,0E0,0E0,0E0,0E0,0E0,0E0,0E0,0E0,0E0,0E0,0E0,0E0,0E0,0E0,0E0,0E0,0E0,0E0,0E0,0E0,0E0,0E0,0E0],"parents":[2147483647,0,0,1,1,2,2,3,3,4,4,5,5,6,6,7,7,8,8,9,9,10,10,13,13,14,14,15,15,16,16,18,18,19,19,20,20,21,21,22,22,23,23,25,25,26,26,27,27,28,28,29,29,30,30,32,32,33,33,35,35,37,37,38,38,39,39,40,40,43,43,45,45],"right_children":[2,4,6,8,10,12,14,16,18,20,22,-1,-1,24,26,28,30,-1,32,34,36,38,40,42,-1,44,46,48,50,52,54,-1,56,58,-1,60,-1,62,64,66,68,-1,-1,70,-1,72,-1,-1,-1,-1,-1,-1,-1,-1,-1,-1,-1,-1,-1,-1,-1,-1,-1,-1,-1,-1,-1,-1,-1,-1,-1,-1,-1],"split_conditions":[2.6E1,2.6E-1,2.9E0,2.82E-1,3.4E-1,3.5E1,-4.81E-1,3.9E0,1.05E-2,2.1907E4,1E0,4.439599E-1,-7.643495E-2,4.28E1,5.7E1,6.8E1,2.73E2,-2.0656501E-1,7.2E0,6.93E1,2.99E0,3.54E1,7.4E0,-6.05E-1,-1.11636594E-1,4.87E1,1.65E2,4.8E1,7E-2,4.2E-2,3.13E2,-1.6960385E-1,6.08E1,2.25E2,2.1794118E-1,4.8E0,-1.2561353E-1,2.6E1,2.7E1,6.6E1,6.5E1,3.9488744E-2,5.566299E-1,1E0,-2.1721965E-1,2.5E0,1.3835509E-1,-9.7578175E-2,3.8594463E-1,7.926105E-2,-2.3476712E-1,-3.8995795E-2,-2.8327724E-1,1.0755003E-1,-1.9896066E-1,4.2539233E-1,1.5441636E-3,-2.394789E-1,-4.6938732E-2,3.6308557E-2,4.658873E-1,7.025472E-2,-2.2349621E-1,-1.9542953E-1,2.0004101E-2,5.621779E-2,-1.9506165E-1,-4.63131E-2,1.07907474E-1,8.848707E-3,3.7774977E-1,-2.810076E-1,-2.3331406E-2],"split_indices":[6,23,4,8,23,6,14,3,15,12,28,0,0,17,13,7,7,0,4,17,19,17,4,14,0,17,13,7,23,8,7,0,22,7,0,3,0,13,13,13,13,0,0,26,0,19,0,0,0,0,0,0,0,0,0,0,0,0,0,0,0,0,0,0,0,0,0,0,0,0,0,0,0],"split_type":[0,0,0,0,0,0,0,0,0,0,0,0,0,0,0,0,0,0,0,0,0,0,0,0,0,0,0,0,0,0,0,0,0,0,0,0,0,0,0,0,0,0,0,0,0,0,0,0,0,0,0,0,0,0,0,0,0,0,0,0,0,0,0,0,0,0,0,0,0,0,0,0,0],"sum_hessian":[1.8934253E2,1.618634E2,2.7479128E1,2.8887333E1,1.3297607E2,3.9312203E0,2.3547907E1,2.1578978E1,7.3083553E0,1.3944516E1,1.1903156E2,2.8049405E0,1.1262798E0,4.8526087E0,1.86953E1,6.4078355E0,1.5171143E1,1.7496208E0,5.5587344E0,5.255032E0,8.689484E0,5.896696E1,6.00646E1,3.069836E0,1.7827725E0,6.7713118E0,1.1923987E1,2.516297E0,3.8915384E0,1.0033105E1,5.138037E0,1.1248085E0,4.433926E0,3.8931255E0,1.3619068E0,6.729957E0,1.9595267E0,1.6115572E1,4.2851387E1,1.432282E1,4.574178E1,1.3314855E0,1.7383505E0,4.801636E0,1.9696757E0,9.912733E0,2.0112545E0,1.4391934E0,1.0771037E0,1.1961569E0,2.6953814E0,1.0497106E0,8.983395E0,1.6518186E0,3.4862185E0,2.9999194E0,1.4340066E0,2.8879015E0,1.005224E0,2.138579E0,4.591378E0,2.6154566E0,1.3500114E1,6.054831E0,3.679656E1,6.1618195E0,8.161001E0,1.6376265E1,2.9365517E1,2.9339383E0,1.8676978E0,6.4211063E0,3.4916267E0],"tree_param":{"num_deleted":"0","num_feature":"29","num_nodes":"73","size_leaf_vector":"1"}},{"base_weights":[-3.45707E-2,1.0775133E-2,-2.2089487E-1,-1.7151719E-2,7.1183324E-1,-2.807812E-1,2.2443528E-1,1.8791722E-2,-4.8604766E-1,-1.597019E-2,1.0538102E0,-7.160367E-1,-1.2981601E-1,-1.0763487E-2,7.483299E-1,-7.848937E-1,2.2785005E-1,4.3001717E-1,-1.7034098E-3,-2.7971E-1,6.521602E-2,3.0834937E-1,-2.2878599E-1,1.7125422E-2,-7.113321E-1,-1.6305361E-2,3.9776084E-1,-2.6749876E-1,-1.5636398E-2,1.9042778E-1,-9.763736E-2,3.253443E-1,-3.561387E-1,2.9272443E-2,-4.9686473E-2,-4.6463493E-2,-2.4361415E-1,1.5613016E-1,-1.6852337E-1,2.4266958E-1,-1.9326502E-1,1.4693613E-1,-1.321163E-1],"categories":[],"categories_nodes":[],"categories_segments":[],"categories_sizes":[],"default_left":[0,0,0,0,0,0,0,0,0,0,0,0,0,0,0,0,0,0,0,0,0,0,0,0,0,0,0,0,0,0,0,0,0,0,0,0,0,0,0,0,0,0,0],"id":16,"left_children":[1,3,5,7,9,11,-1,13,15,-1,17,19,21,23,25,27,29,-1,-1,-1,-1,-1,31,33,35,37,-1,-1,-1,-1,-1,39,41,-1,-1,-1,-1,-1,-1,-1,-1,-1,-1],"loss_changes":[1.5752466E0,2.9621792E0,2.3272667E0,2.4677455E0,1.5724783E0,2.212619E0,0E0,2.950268E0,2.4026473E0,0E0,1.6382937E0,1.9825726E0,3.3599334E0,2.5937264E0,2.3740926E0,5.459895E-1,1.07359E0,0E0,0E0,0E0,0E0,0E0,1.946689E0,1.8986886E0,1.5904593E-1,1.2526277E0,0E0,0E0,0E0,0E0,0E0,3.039116E0,1.7531371E0,0E0,0E0,0E0,0E0,0E0,0E0,0E0,0E0,0E0,0E0],"parents":[2147483647,0,0,1,1,2,2,3,3,4,4,5,5,7,7,8,8,10,10,11,11,12,12,13,13,14,14,15,15,16,16,22,22,23,23,24,24,25,25,31,31,32,32],"right_children":[2,4,6,8,10,12,-1,14,16,-1,18,20,22,24,26,28,30,-1,-1,-1,-1,-1,32,34,36,38,-1,-1,-1,-1,-1,40,42,-1,-1,-1,-1,-1,-1,-1,-1,-1,-1],"split_conditions":[3.3118E4,3.306E4,9.75E-1,7.44E-1,1.15E-1,3.3448E4,2.2443528E-1,6.84E-1,3.1E2,-1.597019E-2,2.14E-1,2.6E1,3.62E1,2E0,2.14E-1,9.2E0,4E2,4.3001717E-1,-1.7034098E-3,-2.7971E-1,6.521602E-2,3.0834937E-1,6.6E-2,2.29E2,9.6E-2,1.16E-1,3.9776084E-1,-2.6749876E-1,-1.5636398E-2,1.9042778E-1,-9.763736E-2,6.6211E4,5.03E1,2.9272443E-2,-4.9686473E-2,-4.6463493E-2,-2.4361415E-1,1.5613016E-1,-1.6852337E-1,2.4266958E-1,-1.9326502E-1,1.4693613E-1,-1.321163E-1],"split_indices":[12,12,14,14,8,12,0,14,7,0,8,6,17,16,8,3,7,0,0,0,0,0,8,7,8,8,0,0,0,0,0,12,22,0,0,0,0,0,0,0,0,0,0],"split_type":[0,0,0,0,0,0,0,0,0,0,0,0,0,0,0,0,0,0,0,0,0,0,0,0,0,0,0,0,0,0,0,0,0,0,0,0,0,0,0,0,0,0,0],"sum_hessian":[1.851595E2,1.4967514E2,3.5484367E1,1.4487936E2,4.795777E0,3.4087925E1,1.3964415E0,1.3545586E2,9.42351E0,1.7422864E0,3.0534902E0,7.8144946E0,2.627343E1,1.3112878E2,4.327072E0,6.572665E0,2.8508441E0,1.9882545E0,1.0652356E0,6.3450904E0,1.469404E0,1.3300945E0,2.4943336E1,1.2704674E2,4.082044E0,2.2800977E0,2.0469742E0,5.5475273E0,1.025138E0,1.557922E0,1.2929221E0,4.370776E0,2.057256E1,8.8536865E1,3.8509872E1,1.0145288E0,3.0675151E0,1.1723206E0,1.1077771E0,3.0268738E0,1.3439025E0,1.4273432E0,1.9145216E1],"tree_param":{"num_deleted":"0","num_feature":"29","num_nodes":"43","size_leaf_vector":"1"}},{"base_weights":[-2.6207512E-2,4.52564E-2,-1.2718564E-1,-2.4801E-1,9.860122E-2,-7.4911624E-2,-6.1637723E-1,6.2848485E-1,-6.455997E-1,2.418859E-1,-6.2224574E-2,-2.6442847E-1,1.4993794E-1,-2.5686407E-1,2.0626644E-2,-3.7925705E-2,8.229705E-1,-8.335499E-1,1.0203179E-1,2.4394106E-2,5.209328E-1,-3.238E-1,1.6197099E-1,-3.51727E-1,4.162671E-1,-1.9221488E-1,4.5416188E-1,3.419324E-1,6.3627E-2,-1.5831614E-2,-9.122357E-1,-3.100499E-1,3.7731034E-1,-1.776729E-1,7.425211E-1,-5.3192544E-1,5.843887E-1,3.8760644E-1,-3.6207423E-1,-6.815335E-1,-1.4224814E-1,-9.2231266E-2,8.058767E-1,-6.4676434E-1,5.421855E-1,-3.2008895E-1,7.102311E-1,-7.625836E-2,-2.8850707E-1,1.412935E-1,-1.6169351E-1,2.3961432E-1,-5.482675E-2,-2.1757938E-1,9.2238024E-2,-6.893245E-2,2.7482292E-1,1.08036555E-1,-1.9362533E-1,2.927717E-1,3.4491863E-2,-6.289685E-2,1.9348176E-1,-2.520476E-1,7.463977E-2,-2.5489607E-1,-7.443453E-3,-1.6355515E-1,5.2296016E-2,3.116433E-1,5.9569925E-2,-2.561056E-1,2.8297087E-2,-7.316775E-2,3.0548152E-1,5.362193E-2,-2.1515022E-1,4.1274434E-1,1.0509063E-1],"categories":[],"categories_nodes":[],"categories_segments":[],"categories_sizes":[],"default_left":[0,0,0,0,0,0,0,0,0,0,0,0,0,0,0,0,0,0,0,0,0,0,0,0,0,0,0,0,0,0,0,0,0,0,0,0,0,0,0,0,0,0,0,0,0,0,0,0,0,0,0,0,0,0,0,0,0,0,0,0,0,0,0,0,0,0,0,0,0,0,0,0,0,0,0,0,0,0,0],"id":17,"left_children":[1,3,5,7,9,11,13,15,17,19,21,23,25,-1,-1,-1,27,29,-1,31,33,35,37,39,41,43,45,-1,-1,-1,47,49,51,53,55,57,59,61,63,65,67,-1,69,71,73,75,77,-1,-1,-1,-1,-1,-1,-1,-1,-1,-1,-1,-1,-1,-1,-1,-1,-1,-1,-1,-1,-1,-1,-1,-1,-1,-1,-1,-1,-1,-1,-1,-1],"loss_changes":[1.3277338E0,1.7142123E0,1.901953E0,6.297892E0,2.1374755E0,3.0210772E0,1.2446651E0,9.5308304E-1,2.5297961E0,2.9558241E0,2.6439815E0,2.4239817E0,3.484621E0,0E0,0E0,0E0,6.739435E-1,5.952792E-1,0E0,3.4852617E0,3.4408994E0,4.228923E0,3.0328388E0,2.2874627E0,1.6053243E0,5.713185E0,3.7115817E0,0E0,0E0,0E0,6.3165665E-2,2.9717846E0,3.5295303E0,1.8047637E0,2.981514E0,1.9927492E0,6.85632E-1,2.8375924E0,2.510252E0,1.4299407E0,2.9485486E0,0E0,2.7554107E-1,1.6720443E0,2.7503176E0,1.1298571E0,2.7561965E0,0E0,0E0,0E0,0E0,0E0,0E0,0E0,0E0,0E0,0E0,0E0,0E0,0E0,0E0,0E0,0E0,0E0,0E0,0E0,0E0,0E0,0E0,0E0,0E0,0E0,0E0,0E0,0E0,0E0,0E0,0E0,0E0],"parents":[2147483647,0,0,1,1,2,2,3,3,4,4,5,5,6,6,7,7,8,8,9,9,10,10,11,11,12,12,16,16,17,17,19,19,20,20,21,21,22,22,23,23,24,24,25,25,26,26,30,30,31,31,32,32,33,33,34,34,35,35,36,36,37,37,38,38,39,39,40,40,42,42,43,43,44,44,45,45,46,46],"right_children":[2,4,6,8,10,12,14,16,18,20,22,24,26,-1,-1,-1,28,30,-1,32,34,36,38,40,42,44,46,-1,-1,-1,48,50,52,54,56,58,60,62,64,66,68,-1,70,72,74,76,78,-1,-1,-1,-1,-1,-1,-1,-1,-1,-1,-1,-1,-1,-1,-1,-1,-1,-1,-1,-1,-1,-1,-1,-1,-1,-1,-1,-1,-1,-1,-1,-1],"split_conditions":[1E0,5.45E1,1.52E0,4.5E1,1.1E1,6.6E-1,2.18E0,7.9E1,2.3E1,2.21E-1,1.65E-2,3.1E1,1E1,-2.5686407E-1,2.0626644E-2,-3.7925705E-2,5.05E1,2.03E1,1.0203179E-1,1.71E2,3.47E1,3.86E0,2.27E2,4.38E1,1.65E-1,2.39E-1,1.1209E4,3.419324E-1,6.3627E-2,-1.5831614E-2,3.5E0,1E0,1E0,2.02E-2,8.4E-1,1.0869E4,5.89E1,4.9E1,2.38E0,5.07E-1,1E0,-9.2231266E-2,6.7E1,8.4E0,1.87E-2,2.07E0,1.3E1,-7.625836E-2,-2.8850707E-1,1.412935E-1,-1.6169351E-1,2.3961432E-1,-5.482675E-2,-2.1757938E-1,9.2238024E-2,-6.893245E-2,2.7482292E-1,1.08036555E-1,-1.9362533E-1,2.927717E-1,3.4491863E-2,-6.289685E-2,1.9348176E-1,-2.520476E-1,7.463977E-2,-2.5489607E-1,-7.443453E-3,-1.6355515E-1,5.2296016E-2,3.116433E-1,5.9569925E-2,-2.561056E-1,2.8297087E-2,-7.316775E-2,3.0548152E-1,5.362193E-2,-2.1515022E-1,4.1274434E-1,1.0509063E-1],"split_indices":[0,22,23,13,6,23,23,7,6,8,15,6,6,0,0,0,22,17,0,7,17,19,7,17,8,14,12,0,0,0,4,1,27,15,19,12,22,7,19,14,28,0,13,3,15,19,6,0,0,0,0,0,0,0,0,0,0,0,0,0,0,0,0,0,0,0,0,0,0,0,0,0,0,0,0,0,0,0,0],"split_type":[0,0,0,0,0,0,0,0,0,0,0,0,0,0,0,0,0,0,0,0,0,0,0,0,0,0,0,0,0,0,0,0,0,0,0,0,0,0,0,0,0,0,0,0,0,0,0,0,0,0,0,0,0,0,0,0,0,0,0,0,0,0,0,0,0,0,0,0,0,0,0,0,0,0,0,0,0,0,0],"sum_hessian":[1.821935E2,1.0701149E2,7.5182E1,1.5907864E1,9.110363E1,6.896561E1,6.2163916E0,4.78297E0,1.1124894E1,4.7912697E1,4.319093E1,3.732761E1,3.1637997E1,4.419577E0,1.7968143E0,1.051503E0,3.7314672E0,9.472987E0,1.6519066E0,2.753729E1,2.0375406E1,1.9728659E1,2.346227E1,3.3512897E1,3.8147132E0,1.5064039E1,1.6573957E1,1.8870496E0,1.8444177E0,1.0202258E0,8.452762E0,1.420103E1,1.3336261E1,4.954246E0,1.5421161E1,1.638751E1,3.3411496E0,1.65827E1,6.8795714E0,1.2142345E1,2.1370552E1,1.4087855E0,2.4059277E0,9.37859E0,5.6854506E0,4.0570507E0,1.2516907E1,1.020044E0,7.4327173E0,2.9793057E0,1.12217245E1,7.3670497E0,5.969211E0,2.0947857E0,2.8594606E0,2.2866874E0,1.3134474E1,1.6043392E0,1.4783171E1,1.2334279E0,2.1077216E0,5.049113E0,1.1533587E1,3.648683E0,3.2308884E0,9.43358E0,2.7087646E0,9.084901E0,1.2285652E1,1.2254097E0,1.1805179E0,7.2127614E0,2.1658278E0,2.3285072E0,3.3569434E0,2.0418477E0,2.0152032E0,3.4025068E0,9.1144E0],"tree_param":{"num_deleted":"0","num_feature":"29","num_nodes":"79","size_leaf_vector":"1"}},{"base_weights":[-2.9024659E-2,3.409716E-2,-1.2581055E-1,1.1292872E-2,2.5606936E-1,-4.172981E-2,-4.6488842E-1,1.1949961E-1,-1.432384E-1,-8.057281E-2,2.825304E-1,-6.4421993E-1,3.9259398E-1,-8.068505E-2,3.8407928E-1,-6.6771996E-1,7.185181E-4,4.71499E-2,-3.404359E-1,4.865613E-2,-7.919755E-1,1.6925985E-1,6.4988146E-3,1.578196E-1,-3.9033177E-1,-3.8143698E-2,7.218618E-1,-8.246124E-1,4.1871563E-2,-1.3082413E-1,6.664699E-1,-7.956374E-2,5.66896E-1,-1.1206394E-1,-2.6458198E-1,-2.7928224E-1,-2.1172178E-1,1.2961034E-1,-6.0644682E-2,5.6277607E-2,-1.886372E-1,1.3290149E-1,-1.2316282E-1,2.7419737E-1,-7.590717E-2,-2.3549305E-2,-2.763472E-1,9.557794E-2,-1.04895175E-1,-9.390519E-2,3.2312617E-1,1.0221452E-1,-9.288127E-2,-4.0979613E-2,3.0377036E-1,-8.350717E-2,2.3243271E-1,-1.8236691E-1,9.511083E-2],"categories":[],"categories_nodes":[],"categories_segments":[],"categories_sizes":[],"default_left":[0,0,0,0,0,0,0,0,0,0,0,0,0,0,0,0,0,0,0,0,0,0,0,0,0,0,0,0,0,0,0,0,0,0,0,0,0,0,0,0,0,0,0,0,0,0,0,0,0,0,0,0,0,0,0,0,0,0,0],"id":18,"left_children":[1,3,5,7,-1,9,11,13,15,17,-1,19,21,23,25,27,29,31,33,-1,35,-1,-1,37,39,41,43,45,-1,47,49,51,53,55,-1,-1,57,-1,-1,-1,-1,-1,-1,-1,-1,-1,-1,-1,-1,-1,-1,-1,-1,-1,-1,-1,-1,-1,-1],"loss_changes":[1.0987353E0,2.0313153E0,2.002764E0,1.8108493E0,0E0,2.2890646E0,2.4049351E0,3.401567E0,3.3704753E0,1.8964132E0,0E0,1.5526361E0,1.8140832E-1,2.7981274E0,3.9615493E0,1.3327327E0,3.2416725E0,2.6045644E0,2.2249415E0,0E0,6.311698E-1,0E0,0E0,2.223755E0,2.3794928E0,2.5487309E0,3.1109772E0,5.179362E-1,0E0,3.151565E0,2.7933373E0,3.2110918E0,2.565218E0,2.3337796E0,0E0,0E0,8.796121E-1,0E0,0E0,0E0,0E0,0E0,0E0,0E0,0E0,0E0,0E0,0E0,0E0,0E0,0E0,0E0,0E0,0E0,0E0,0E0,0E0,0E0,0E0],"parents":[2147483647,0,0,1,1,2,2,3,3,5,5,6,6,7,7,8,8,9,9,11,11,12,12,13,13,14,14,15,15,16,16,17,17,18,18,20,20,23,23,24,24,25,25,26,26,27,27,29,29,30,30,31,31,32,32,33,33,36,36],"right_children":[2,4,6,8,-1,10,12,14,16,18,-1,20,22,24,26,28,30,32,34,-1,36,-1,-1,38,40,42,44,46,-1,48,50,52,54,56,-1,-1,58,-1,-1,-1,-1,-1,-1,-1,-1,-1,-1,-1,-1,-1,-1,-1,-1,-1,-1,-1,-1,-1,-1],"split_conditions":[6.17E1,1E0,2.95E2,6.7E0,2.5606936E-1,2.81E2,1.37E0,4.8E0,3.2E-1,1.57E1,2.825304E-1,1E0,1.1E1,7.3E-2,5.72E1,2.5E-1,6.08E1,1.37E1,2.94E0,4.865613E-2,6.88E1,1.6925985E-1,6.4988146E-3,1.39E2,1.7E0,1.52E-2,1.24E0,2.38E1,4.1871563E-2,4.5E1,6.5E1,1E0,7E-1,2.73E0,-2.6458198E-1,-2.7928224E-1,1E0,1.2961034E-1,-6.0644682E-2,5.6277607E-2,-1.886372E-1,1.3290149E-1,-1.2316282E-1,2.7419737E-1,-7.590717E-2,-2.3549305E-2,-2.763472E-1,9.557794E-2,-1.04895175E-1,-9.390519E-2,3.2312617E-1,1.0221452E-1,-9.288127E-2,-4.0979613E-2,3.0377036E-1,-8.350717E-2,2.3243271E-1,-1.8236691E-1,9.511083E-2],"split_indices":[22,11,7,3,0,7,23,3,23,4,0,1,6,14,22,10,22,4,19,0,22,0,0,7,3,15,23,17,0,13,13,2,23,19,0,0,26,0,0,0,0,0,0,0,0,0,0,0,0,0,0,0,0,0,0,0,0,0,0],"split_type":[0,0,0,0,0,0,0,0,0,0,0,0,0,0,0,0,0,0,0,0,0,0,0,0,0,0,0,0,0,0,0,0,0,0,0,0,0,0,0,0,0,0,0,0,0,0,0,0,0,0,0,0,0,0,0,0,0,0,0],"sum_hessian":[1.7814417E2,1.0821573E2,6.992843E1,1.0627215E2,1.9435803E0,5.6933712E1,1.2994716E1,6.2638073E1,4.363408E1,5.5653755E1,1.2799556E0,1.0952787E1,2.0419278E0,3.6054092E1,2.658398E1,8.613605E0,3.5020473E1,3.7862766E1,1.779099E1,1.6809547E0,9.271832E0,1.0398315E0,1.0020964E0,2.0643675E1,1.5410417E1,1.220944E1,1.437454E1,7.1940312E0,1.4195731E0,2.9913502E1,5.1069727E0,3.1122135E1,6.74063E0,1.3362491E1,4.4284997E0,6.992764E0,2.279069E0,1.160391E1,9.039764E0,4.5635667E0,1.084685E1,5.2442036E0,6.965237E0,1.2060193E1,2.3143473E0,1.0319582E0,6.162073E0,9.646328E0,2.0267172E1,1.5787386E0,3.5282342E0,1.0838794E1,2.028334E1,2.8831174E0,3.857513E0,1.1830291E1,1.5321999E0,1.2173343E0,1.0617346E0],"tree_param":{"num_deleted":"0","num_feature":"29","num_nodes":"59","size_leaf_vector":"1"}},{"base_weights":[-2.6187655E-2,-3.5914503E-2,1.725091E-1,3.9004786E-3,-2.2483109E-1,5.532705E-2,-2.3151949E-1,-3.106184E-1,4.207142E-1,-4.215674E-2,2.2283836E-1,2.0811029E-1,-4.1777274E-1,1.9311304E-1,-5.002256E-1,-6.2495463E-2,2.1840613E-1,-8.6802594E-2,4.8586386E-1,6.1019975E-1,2.311413E-2,-1.8536016E-1,4.4849008E-1,-5.7383883E-1,2.0348194E-1,5.9067786E-1,-5.332624E-1,-7.186577E-1,-1.7592092E-1,6.380785E-3,-8.774254E-2,2.1758799E-1,-9.503844E-2,3.037202E-1,-6.9862633E-4,1.2748855E-1,-8.1572615E-2,1.6739827E-2,2.9304567E-1,-1.967753E-1,6.616064E-2,3.3070466E-1,-1.1858719E-1,2.7080452E-1,-7.427485E-2,-4.7302026E-2,-1.8730839E-1,-2.7097964E-1,-4.376294E-2,-1.9679132E-1,8.750237E-2],"categories":[],"categories_nodes":[],"categories_segments":[],"categories_sizes":[],"default_left":[0,0,0,0,0,0,0,0,0,0,0,0,0,0,0,0,0,0,0,0,0,0,0,0,0,0,0,0,0,0,0,0,0,0,0,0,0,0,0,0,0,0,0,0,0,0,0,0,0,0,0],"id":19,"left_children":[1,3,-1,5,7,9,11,13,15,17,19,21,23,25,27,-1,-1,29,31,33,35,-1,37,39,41,43,45,47,49,-1,-1,-1,-1,-1,-1,-1,-1,-1,-1,-1,-1,-1,-1,-1,-1,-1,-1,-1,-1,-1,-1],"loss_changes":[1.0464011E0,1.3062824E0,0E0,1.7601261E0,1.8046376E0,1.9568169E0,2.2214375E0,2.6998997E0,9.191663E-1,1.8391395E0,3.3923087E0,1.9498506E0,1.9243226E0,2.6758626E0,1.2960963E0,0E0,0E0,1.5873115E0,1.4009761E0,3.682849E0,3.6829243E0,0E0,1.4195962E0,1.133214E0,2.84763E0,1.7294292E0,1.848197E-2,1.1027584E0,2.302711E0,0E0,0E0,0E0,0E0,0E0,0E0,0E0,0E0,0E0,0E0,0E0,0E0,0E0,0E0,0E0,0E0,0E0,0E0,0E0,0E0,0E0,0E0],"parents":[2147483647,0,0,1,1,3,3,4,4,5,5,6,6,7,7,8,8,9,9,10,10,11,11,12,12,13,13,14,14,17,17,18,18,19,19,20,20,22,22,23,23,24,24,25,25,26,26,27,27,28,28],"right_children":[2,4,-1,6,8,10,12,14,16,18,20,22,24,26,28,-1,-1,30,32,34,36,-1,38,40,42,44,46,48,50,-1,-1,-1,-1,-1,-1,-1,-1,-1,-1,-1,-1,-1,-1,-1,-1,-1,-1,-1,-1,-1,-1],"split_conditions":[3.17E1,1E0,1.725091E-1,3.21E-1,1E0,1.95E-1,-3.31E-1,1E-2,6.08E1,5.51E2,5.69E1,1.15E0,1.99E1,1.1E1,2.55E-2,-6.2495463E-2,2.1840613E-1,6.25E1,3.23E0,2.05E-2,1.72E0,-1.8536016E-1,1E0,4.05E-2,2.1E1,2.2072E4,1.07E2,1.05E0,1E1,6.380785E-3,-8.774254E-2,2.1758799E-1,-9.503844E-2,3.037202E-1,-6.9862633E-4,1.2748855E-1,-8.1572615E-2,1.6739827E-2,2.9304567E-1,-1.967753E-1,6.616064E-2,3.3070466E-1,-1.1858719E-1,2.7080452E-1,-7.427485E-2,-4.7302026E-2,-1.8730839E-1,-2.7097964E-1,-4.376294E-2,-1.9679132E-1,8.750237E-2],"split_indices":[4,9,0,8,20,8,14,15,22,7,22,19,4,6,15,0,0,22,19,15,19,0,27,15,4,12,7,23,6,0,0,0,0,0,0,0,0,0,0,0,0,0,0,0,0,0,0,0,0,0,0],"split_type":[0,0,0,0,0,0,0,0,0,0,0,0,0,0,0,0,0,0,0,0,0,0,0,0,0,0,0,0,0,0,0,0,0,0,0,0,0,0,0,0,0,0,0,0,0,0,0,0,0,0,0],"sum_hessian":[1.7440306E2,1.7255168E2,1.8513755E0,1.4332474E2,2.9226948E1,1.1825695E2,2.5067781E1,2.6256516E1,2.970432E0,7.522679E1,4.303016E1,7.4248686E0,1.7642914E1,7.1753087E0,1.9081207E1,1.0806135E0,1.8898185E0,7.013247E1,5.0943203E0,1.3939517E1,2.9090641E1,1.3197275E0,6.105141E0,1.4161668E1,3.4812458E0,4.757962E0,2.4173462E0,1.0675104E1,8.406102E0,4.6562504E1,2.3569967E1,3.9980936E0,1.0962266E0,8.020345E0,5.9191723E0,1.2129175E1,1.6961468E1,4.13634E0,1.9688007E0,1.2993419E1,1.1682495E0,1.0555934E0,2.4256525E0,3.411382E0,1.3465805E0,1.004933E0,1.4124132E0,7.636782E0,3.0383215E0,3.949029E0,4.4570737E0],"tree_param":{"num_deleted":"0","num_feature":"29","num_nodes":"51","size_leaf_vector":"1"}},{"base_weights":[-2.2237202E-2,-3.426511E-2,4.7252473E-1,-7.261599E-3,-4.479342E-1,-7.321064E-3,2.1682476E-1,-3.090427E-1,1.4273573E-2,9.679478E-2,-5.709239E-1,2.4174051E-1,-5.2257454E-1,-3.2668233E-1,4.0087767E-2,4.423167E-2,-6.790783E-1,1.9640647E-1,-7.202494E-2,1.5682088E-2,-6.7483985E-1,-2.3304759E-1,-7.478965E-2,-4.6127415E-1,5.625309E-2,-2.4376284E-1,-3.6044754E-2,-2.4620257E-1,-6.6790454E-2,6.2222537E-2,-2.0144181E-1,-2.2693416E-1,8.537708E-2,-7.51301E-2,2.6326064E-2],"categories":[],"categories_nodes":[],"categories_segments":[],"categories_sizes":[],"default_left":[0,0,0,0,0,0,0,0,0,0,0,0,0,0,0,0,0,0,0,0,0,0,0,0,0,0,0,0,0,0,0,0,0,0,0],"id":20,"left_children":[1,3,5,7,9,-1,-1,11,13,-1,15,17,19,21,23,-1,25,-1,-1,-1,27,-1,29,31,33,-1,-1,-1,-1,-1,-1,-1,-1,-1,-1],"loss_changes":[1.0437839E0,1.8902752E0,5.356338E-1,1.0451487E0,1.1670907E0,0E0,0E0,1.3860036E0,1.3371037E0,0E0,8.230252E-1,8.885899E-1,7.385421E-1,1.1548008E0,1.1665423E0,0E0,5.189431E-1,0E0,0E0,0E0,2.4093413E-1,0E0,1.4804994E0,1.2070026E0,1.3477072E0,0E0,0E0,0E0,0E0,0E0,0E0,0E0,0E0,0E0,0E0],"parents":[2147483647,0,0,1,1,2,2,3,3,4,4,7,7,8,8,10,10,11,11,12,12,13,13,14,14,16,16,20,20,22,22,23,23,24,24],"right_children":[2,4,6,8,10,-1,-1,12,14,-1,16,18,20,22,24,-1,26,-1,-1,-1,28,-1,30,32,34,-1,-1,-1,-1,-1,-1,-1,-1,-1,-1],"split_conditions":[5.46E-1,4E-1,2.8E0,3.4E-3,1.0896E4,-7.321064E-3,2.1682476E-1,3.7E0,1.0838E4,9.679478E-2,1.9E0,7.1E0,6E-4,1.36E-1,7E0,4.423167E-2,5.05E-1,1.9640647E-1,-7.202494E-2,1.5682088E-2,2.42E-1,-2.3304759E-1,2.47E-2,2.66E-1,-6.5E-1,-2.4376284E-1,-3.6044754E-2,-2.4620257E-1,-6.6790454E-2,6.2222537E-2,-2.0144181E-1,-2.2693416E-1,8.537708E-2,-7.51301E-2,2.6326064E-2],"split_indices":[8,8,19,15,12,0,0,3,12,0,3,4,15,8,7,0,8,0,0,0,8,0,15,8,14,0,0,0,0,0,0,0,0,0,0],"split_type":[0,0,0,0,0,0,0,0,0,0,0,0,0,0,0,0,0,0,0,0,0,0,0,0,0,0,0,0,0,0,0,0,0,0,0],"sum_hessian":[1.7167706E2,1.6851122E2,3.1658466E0,1.591404E2,9.37082E0,1.3624965E0,1.80335E0,9.710641E0,1.4942975E2,1.0663424E0,8.304478E0,2.6760206E0,7.0346203E0,9.696921E0,1.3973283E2,1.0391567E0,7.265321E0,1.2478108E0,1.4282098E0,1.6106426E0,5.423978E0,2.7315578E0,6.965363E0,3.5045834E0,1.3622824E2,5.498586E0,1.7667347E0,3.4851823E0,1.9387956E0,5.17179E0,1.7935731E0,2.5007374E0,1.0038459E0,1.204161E1,1.2418664E2],"tree_param":{"num_deleted":"0","num_feature":"29","num_nodes":"35","size_leaf_vector":"1"}},{"base_weights":[-2.2123812E-2,-3.4733534E-2,4.488579E-1,1.8824011E-1,-6.360471E-2,8.806927E-1,-9.5776804E-2,-4.8655477E-1,3.8327155E-1,-3.785798E-1,-2.7879957E-2,3.5867533E-1,5.100053E-2,4.5477945E-2,-2.0908162E-1,-3.2157558E-1,5.241634E-1,2.7154085E-1,-6.824543E-1,4.7405753E-3,-5.853501E-1,-1.7144585E-1,3.1953577E-2,7.1547776E-1,2.3174418E-2,-2.9274946E-1,7.4205154E-1,-2.761608E-1,-1.07742436E-1,4.076574E-1,-2.638677E-2,-2.6738483E-1,1.2688766E-1,-9.844643E-2,2.805005E-1,1.8339962E-1,-1.7066014E-1,5.2748162E-2,-1.7451513E-1,2.9482615E-1,4.5792747E-2,-1.2947516E-1,1.0362887E-1,2.392384E-1,-1.2904394E-2,-1.4647646E-1,2.1856893E-3],"categories":[],"categories_nodes":[],"categories_segments":[],"categories_sizes":[],"default_left":[0,0,0,0,0,0,0,0,0,0,0,0,0,0,0,0,0,0,0,0,0,0,0,0,0,0,0,0,0,0,0,0,0,0,0,0,0,0,0,0,0,0,0,0,0,0,0],"id":21,"left_children":[1,3,5,7,9,11,-1,13,15,17,19,-1,-1,-1,-1,21,23,25,27,29,31,-1,-1,33,35,37,39,-1,41,43,45,-1,-1,-1,-1,-1,-1,-1,-1,-1,-1,-1,-1,-1,-1,-1,-1],"loss_changes":[1.0333834E0,1.092416E0,1.7872357E0,2.7518835E0,1.6699078E0,5.067289E-1,0E0,7.5160134E-1,1.7258623E0,3.1750307E0,2.461545E0,0E0,0E0,0E0,0E0,4.0666065E-1,1.2725053E0,1.6870261E0,1.3508911E0,1.6252092E0,2.6851244E0,0E0,0E0,2.5289621E0,2.0018415E0,5.4019964E-1,3.1840456E-1,0E0,7.708608E-1,1.6667277E0,1.8765728E0,0E0,0E0,0E0,0E0,0E0,0E0,0E0,0E0,0E0,0E0,0E0,0E0,0E0,0E0,0E0,0E0],"parents":[2147483647,0,0,1,1,2,2,3,3,4,4,5,5,7,7,8,8,9,9,10,10,15,15,16,16,17,17,18,18,19,19,20,20,23,23,24,24,25,25,26,26,28,28,29,29,30,30],"right_children":[2,4,6,8,10,12,-1,14,16,18,20,-1,-1,-1,-1,22,24,26,28,30,32,-1,-1,34,36,38,40,-1,42,44,46,-1,-1,-1,-1,-1,-1,-1,-1,-1,-1,-1,-1,-1,-1,-1,-1],"split_conditions":[7.31E1,2E0,4.92E1,4.6E1,3.3E0,9.5E0,-9.5776804E-2,9E0,1.1011E4,1E0,1.79E2,3.5867533E-1,5.100053E-2,4.5477945E-2,-2.0908162E-1,6E1,2.82E0,2.24E-1,1.13E0,3.8E0,6.87E1,-1.7144585E-1,3.1953577E-2,5.71E1,5.72E1,1.02E1,2.61E-1,-2.761608E-1,2.72E-1,2.1998E4,4.1E-1,-2.6738483E-1,1.2688766E-1,-9.844643E-2,2.805005E-1,1.8339962E-1,-1.7066014E-1,5.2748162E-2,-1.7451513E-1,2.9482615E-1,4.5792747E-2,-1.2947516E-1,1.0362887E-1,2.392384E-1,-1.2904394E-2,-1.4647646E-1,2.1856893E-3],"split_indices":[22,3,17,13,3,4,0,13,12,2,13,0,0,0,0,17,19,8,23,3,17,0,0,22,22,4,8,0,8,12,19,0,0,0,0,0,0,0,0,0,0,0,0,0,0,0,0],"split_type":[0,0,0,0,0,0,0,0,0,0,0,0,0,0,0,0,0,0,0,0,0,0,0,0,0,0,0,0,0,0,0,0,0,0,0,0,0,0,0,0,0,0,0,0,0,0,0],"sum_hessian":[1.7037598E2,1.668355E2,3.540479E0,1.8493011E1,1.4834248E2,2.1725197E0,1.3679593E0,3.8113296E0,1.4681681E1,1.4133581E1,1.3420891E2,1.032678E0,1.1398418E0,1.0142615E0,2.797068E0,2.232185E0,1.2449496E1,4.535839E0,9.597741E0,1.2772645E2,6.4824557E0,1.1978971E0,1.0342877E0,8.699325E0,3.7501714E0,2.2341704E0,2.3016686E0,6.360916E0,3.2368252E0,8.292371E0,1.1943408E2,5.0624967E0,1.4199587E0,1.4258556E0,7.2734694E0,1.8649112E0,1.8852602E0,1.0015829E0,1.2325877E0,1.1604221E0,1.1412466E0,1.9155738E0,1.3212514E0,4.033846E0,4.2585244E0,7.1983013E0,1.1223578E2],"tree_param":{"num_deleted":"0","num_feature":"29","num_nodes":"47","size_leaf_vector":"1"}},{"base_weights":[-1.9777028E-2,3.3408136E-3,-2.6222783E-1,2.7605856E-2,-3.0945086E-1,-4.9528386E-2,-6.4993924E-1,4.003514E-3,3.5793966E-1,1.3561352E-1,-6.2867695E-1,-5.016862E-1,2.1698783E-1,-2.3779504E-1,-1.1570349E-2,9.169262E-2,-1.0461448E-1,6.116244E-1,-2.523982E-1,-1.8800767E-1,5.497682E-1,-2.3078258E-1,1.3579635E-3,9.223612E-3,-2.1143526E-1,5.530466E-1,-2.3098335E-1,1.2342827E-1,-2.1541043E-1,1.3622993E-1,-2.2900236E-1,-9.8708905E-2,9.524478E-1,3.9910633E-2,-1.6989191E-1,2.6486093E-1,-6.42045E-2,2.2895252E-2,2.6521072E-1,-1.579265E-1,7.0978224E-2,6.382606E-4,9.4285496E-2,1.6989325E-1,-3.3735525E-2,2.0897326E-3,-1.6075042E-1,1.3651437E-1,-1.7896256E-1,3.34016E-2,3.4995475E-1],"categories":[],"categories_nodes":[],"categories_segments":[],"categories_sizes":[],"default_left":[0,0,0,0,0,0,0,0,0,0,0,0,0,0,0,0,0,0,0,0,0,0,0,0,0,0,0,0,0,0,0,0,0,0,0,0,0,0,0,0,0,0,0,0,0,0,0,0,0,0,0],"id":22,"left_children":[1,3,5,7,9,11,13,15,17,19,21,23,25,-1,-1,27,29,31,33,-1,35,-1,-1,-1,-1,37,39,41,-1,43,45,47,49,-1,-1,-1,-1,-1,-1,-1,-1,-1,-1,-1,-1,-1,-1,-1,-1,-1,-1],"loss_changes":[9.4706744E-1,1.185782E0,1.1807102E0,1.1279731E0,1.6833489E0,1.3838294E0,4.1683292E-1,1.3069329E0,1.6482952E0,2.0874712E0,6.0241246E-1,4.7859287E-1,1.2349318E0,0E0,0E0,2.0390038E0,1.8679559E0,1.8147981E0,5.037416E-1,0E0,1.2345716E0,0E0,0E0,0E0,0E0,6.420884E-1,6.574614E-1,1.7099447E0,0E0,2.3640084E0,2.957986E0,1.1565756E0,7.518654E-1,0E0,0E0,0E0,0E0,0E0,0E0,0E0,0E0,0E0,0E0,0E0,0E0,0E0,0E0,0E0,0E0,0E0,0E0],"parents":[2147483647,0,0,1,1,2,2,3,3,4,4,5,5,6,6,7,7,8,8,9,9,10,10,11,11,12,12,15,15,16,16,17,17,18,18,20,20,25,25,26,26,27,27,29,29,30,30,31,31,32,32],"right_children":[2,4,6,8,10,12,14,16,18,20,22,24,26,-1,-1,28,30,32,34,-1,36,-1,-1,-1,-1,38,40,42,-1,44,46,48,50,-1,-1,-1,-1,-1,-1,-1,-1,-1,-1,-1,-1,-1,-1,-1,-1,-1,-1],"split_conditions":[1E0,4.5E-1,2.03E-1,2.4E-1,5.89E1,9E0,9.3E0,8.8E1,1.94E2,6.8E-2,1.37E0,5.55E1,1.32E2,-2.3779504E-1,-1.1570349E-2,1.31849E5,1E0,1.17E-2,4.51E1,-1.8800767E-1,4.2E-1,-2.3078258E-1,1.3579635E-3,9.223612E-3,-2.1143526E-1,3.3004E4,3.25E0,2.13E2,-2.1541043E-1,6.1E1,7.6E-1,6.1E-3,6.6E1,3.9910633E-2,-1.6989191E-1,2.6486093E-1,-6.42045E-2,2.2895252E-2,2.6521072E-1,-1.579265E-1,7.0978224E-2,6.382606E-4,9.4285496E-2,1.6989325E-1,-3.3735525E-2,2.0897326E-3,-1.6075042E-1,1.3651437E-1,-1.7896256E-1,3.34016E-2,3.4995475E-1],"split_indices":[25,10,14,10,22,6,3,13,7,14,23,22,7,0,0,12,2,15,17,0,14,0,0,0,0,12,19,7,0,7,23,15,13,0,0,0,0,0,0,0,0,0,0,0,0,0,0,0,0,0,0],"split_type":[0,0,0,0,0,0,0,0,0,0,0,0,0,0,0,0,0,0,0,0,0,0,0,0,0,0,0,0,0,0,0,0,0,0,0,0,0,0,0,0,0,0,0,0,0,0,0,0,0,0,0],"sum_hessian":[1.6781386E2,1.5410597E2,1.3707884E1,1.4385783E2,1.0248133E1,9.580011E0,4.1278725E0,1.3520926E2,8.648579E0,4.5206428E0,5.72749E0,3.2254655E0,6.3545456E0,3.106272E0,1.0216005E0,7.4898384E1,6.0310875E1,6.1077895E0,2.540789E0,1.410764E0,3.1098788E0,4.510968E0,1.2165221E0,1.1249555E0,2.10051E0,3.496777E0,2.8577683E0,7.2889206E1,2.0091794E0,2.0507769E1,3.9803104E1,2.2106998E0,3.8970897E0,1.3990971E0,1.1416917E0,2.056904E0,1.0529747E0,1.9371878E0,1.5595893E0,1.674125E0,1.1836433E0,4.5183537E1,2.7705666E1,7.045582E0,1.3462188E1,2.3052204E1,1.6750902E1,1.0872532E0,1.1234467E0,1.0990089E0,2.798081E0],"tree_param":{"num_deleted":"0","num_feature":"29","num_nodes":"51","size_leaf_vector":"1"}},{"base_weights":[-2.0652847E-2,-3.484144E-2,3.0172178E-1,-3.5682794E-1,-1.4603153E-2,6.006488E-1,-1.7894045E-1,8.8517666E-2,-5.62744E-1,4.753785E-2,-1.05369136E-1,9.67427E-1,-4.506683E-2,-1.1235573E-1,-2.2457816E-1,1.693077E-1,-5.6138996E-2,-3.3589804E-1,2.96193E-2,2.8195132E-2,3.9225295E-1,7.232198E-2,-1.11094706E-1,-3.2915232E-1,2.5280672E-1,3.4914248E-2,-6.71513E-1,-4.622487E-1,3.986812E-1,1.3433297E-1,-5.2221036E-1,-1.8765274E-1,5.056568E-2,1.1536149E-1,-7.093345E-2,-4.252474E-2,1.5108496E-1,5.4998085E-2,-2.584893E-1,-2.5563148E-1,-9.035374E-2,-1.1204591E-1,2.7249444E-1,1.1283515E-1,-6.9169745E-2,-2.5339633E-1,9.89595E-2],"categories":[],"categories_nodes":[],"categories_segments":[],"categories_sizes":[],"default_left":[0,0,0,0,0,0,0,0,0,0,0,0,0,0,0,0,0,0,0,0,0,0,0,0,0,0,0,0,0,0,0,0,0,0,0,0,0,0,0,0,0,0,0,0,0,0,0],"id":23,"left_children":[1,3,5,7,9,11,-1,-1,13,15,17,19,-1,21,-1,23,25,27,29,-1,-1,-1,-1,31,33,35,37,39,41,43,45,-1,-1,-1,-1,-1,-1,-1,-1,-1,-1,-1,-1,-1,-1,-1,-1],"loss_changes":[7.7300656E-1,1.0411308E0,2.2729342E0,1.4349523E0,8.62988E-1,1.7560856E0,0E0,0E0,5.459988E-1,1.1581725E0,1.9433719E0,1.0842261E0,0E0,3.9701977E-1,0E0,1.8350724E0,2.8191402E0,2.321467E0,2.3875344E0,0E0,0E0,0E0,0E0,1.0602703E0,2.4509013E0,3.7490027E0,1.2111728E0,1.0061531E0,1.8803855E0,3.1308308E0,2.0922017E0,0E0,0E0,0E0,0E0,0E0,0E0,0E0,0E0,0E0,0E0,0E0,0E0,0E0,0E0,0E0,0E0],"parents":[2147483647,0,0,1,1,2,2,3,3,4,4,5,5,8,8,9,9,10,10,11,11,13,13,15,15,16,16,17,17,18,18,23,23,24,24,25,25,26,26,27,27,28,28,29,29,30,30],"right_children":[2,4,6,8,10,12,-1,-1,14,16,18,20,-1,22,-1,24,26,28,30,-1,-1,-1,-1,32,34,36,38,40,42,44,46,-1,-1,-1,-1,-1,-1,-1,-1,-1,-1,-1,-1,-1,-1,-1,-1],"split_conditions":[7.18E1,3.4E-3,1E2,1.0967E4,1E0,1.47E1,-1.7894045E-1,8.8517666E-2,1.4E0,1.74E-2,6.4E1,1.8E1,-4.506683E-2,1.2E-3,-2.2457816E-1,4.7E0,3.63E0,2.35E1,1.22E0,2.8195132E-2,3.9225295E-1,7.232198E-2,-1.11094706E-1,2.13E2,3.13E2,2.64E0,3.2E0,1.24E0,1.2E1,6.4E0,7.9E0,-1.8765274E-1,5.056568E-2,1.1536149E-1,-7.093345E-2,-4.252474E-2,1.5108496E-1,5.4998085E-2,-2.584893E-1,-2.5563148E-1,-9.035374E-2,-1.1204591E-1,2.7249444E-1,1.1283515E-1,-6.9169745E-2,-2.5339633E-1,9.89595E-2],"split_indices":[22,15,13,12,0,4,0,0,19,15,13,6,0,15,0,4,19,4,23,0,0,0,0,7,7,19,4,19,6,3,3,0,0,0,0,0,0,0,0,0,0,0,0,0,0,0,0],"split_type":[0,0,0,0,0,0,0,0,0,0,0,0,0,0,0,0,0,0,0,0,0,0,0,0,0,0,0,0,0,0,0,0,0,0,0,0,0,0,0,0,0,0,0,0,0,0,0],"sum_hessian":[1.6570026E2,1.595691E2,6.1311526E0,8.4529705E0,1.5111613E2,4.8487163E0,1.2824363E0,1.9252201E0,6.52775E0,8.998564E1,6.1130497E1,3.0637574E0,1.7849588E0,2.3755052E0,4.152245E0,4.109085E1,4.889479E1,2.2026316E1,3.9104183E1,1.2162883E0,1.8474692E0,1.0299039E0,1.3456012E0,5.4735694E0,3.5617283E1,4.34143E1,5.480493E0,1.911004E1,2.9162757E0,3.3503265E1,5.6009183E0,3.2697928E0,2.2037768E0,2.8230274E1,7.3870068E0,3.2036617E1,1.137768E1,1.0036112E0,4.476882E0,4.332727E0,1.4777313E1,1.2657027E0,1.6505731E0,2.013256E1,1.3370703E1,4.069601E0,1.5313172E0],"tree_param":{"num_deleted":"0","num_feature":"29","num_nodes":"47","size_leaf_vector":"1"}},{"base_weights":[-2.3044808E-2,-6.183947E-2,9.5438525E-2,-3.835263E-3,-3.9227983E-1,-1.4884102E-1,2.7225074E-1,1.5870233E-1,-1.17560275E-1,-6.346179E-1,4.3940076E-1,-4.6108803E-1,5.973201E-1,4.046329E-1,-4.8309612E-1,2.5348803E-1,-3.3394983E-1,-3.5691467E-1,1.8658378E-3,1.3566601E-1,-7.9462606E-1,3.240492E-1,-1.07392825E-1,1.8176487E-1,-6.09987E-1,3.6435717E-1,-1.5812938E-1,1.6548954E-1,8.8265836E-1,4.6284866E-2,-2.2302254E-1,-7.072544E-2,4.7349662E-1,3.1763935E-1,-2.4909846E-1,-6.4319396E-1,-1.18779264E-1,2.788507E-1,-1.8230456E-1,-8.29563E-2,1.6154788E-1,-8.83547E-1,-2.9040622E-2,9.310244E-2,-8.377406E-1,-1.591804E-1,6.707487E-2,7.173755E-1,-6.241356E-2,1.1710641E0,-1.951024E-2,1.993013E-1,-5.6728285E-2,1.794897E-1,-1.2356448E-1,-4.85699E-2,1.9025493E-1,-3.9422594E-2,-2.4685587E-1,5.0166328E-2,-2.1219754E-1,1.650909E-1,-4.7556564E-2,6.673935E-2,-1.113293E-1,-2.8726628E-1,-2.3175899E-2,-2.0047127E-1,3.092357E-1,-2.79692E-1,-1.296549E-2,-6.464039E-2,3.1517205E-1,-7.3174365E-2,1.400465E-1,4.1645092E-1,6.534769E-2],"categories":[],"categories_nodes":[],"categories_segments":[],"categories_sizes":[],"default_left":[0,0,0,0,0,0,0,0,0,0,0,0,0,0,0,0,0,0,0,0,0,0,0,0,0,0,0,0,0,0,0,0,0,0,0,0,0,0,0,0,0,0,0,0,0,0,0,0,0,0,0,0,0,0,0,0,0,0,0,0,0,0,0,0,0,0,0,0,0,0,0,0,0,0,0,0,0],"id":24,"left_children":[1,3,5,7,9,11,13,15,17,19,21,23,25,27,29,31,33,35,37,39,41,-1,-1,-1,43,-1,45,47,49,-1,-1,51,53,55,-1,57,59,61,63,-1,-1,65,-1,67,69,-1,-1,71,73,75,-1,-1,-1,-1,-1,-1,-1,-1,-1,-1,-1,-1,-1,-1,-1,-1,-1,-1,-1,-1,-1,-1,-1,-1,-1,-1,-1],"loss_changes":[7.615942E-1,2.384E0,1.8090409E0,1.9943724E0,4.022591E0,4.431735E0,2.6060004E0,2.1591446E0,1.8146622E0,1.9310503E0,2.829975E0,2.4572694E0,2.8490787E0,2.2609675E0,7.8677595E-1,2.7315652E0,2.7217531E0,1.3640146E0,2.2612362E0,7.131929E-1,6.8355465E-1,0E0,0E0,0E0,2.0043468E0,0E0,6.0873187E-1,1.9648106E0,1.9321208E0,0E0,0E0,1.5318058E0,2.7507358E0,7.1128047E-1,0E0,7.532263E-1,2.2662182E0,2.1887016E0,2.1175926E0,0E0,0E0,5.746832E-1,0E0,3.4325786E0,6.499305E-1,0E0,0E0,1.6379793E0,1.2400239E0,7.859278E-1,0E0,0E0,0E0,0E0,0E0,0E0,0E0,0E0,0E0,0E0,0E0,0E0,0E0,0E0,0E0,0E0,0E0,0E0,0E0,0E0,0E0,0E0,0E0,0E0,0E0,0E0,0E0],"parents":[2147483647,0,0,1,1,2,2,3,3,4,4,5,5,6,6,7,7,8,8,9,9,10,10,11,11,12,12,13,13,14,14,15,15,16,16,17,17,18,18,19,19,20,20,24,24,26,26,27,27,28,28,31,31,32,32,33,33,35,35,36,36,37,37,38,38,41,41,43,43,44,44,47,47,48,48,49,49],"right_children":[2,4,6,8,10,12,14,16,18,20,22,24,26,28,30,32,34,36,38,40,42,-1,-1,-1,44,-1,46,48,50,-1,-1,52,54,56,-1,58,60,62,64,-1,-1,66,-1,68,70,-1,-1,72,74,76,-1,-1,-1,-1,-1,-1,-1,-1,-1,-1,-1,-1,-1,-1,-1,-1,-1,-1,-1,-1,-1,-1,-1,-1,-1,-1,-1],"split_conditions":[8.2E0,7.1E0,1.25E1,1.03E1,1.34E0,6.44E1,1.38E0,6.5533E4,2.1584E4,1.1E4,3.95E1,1.0676E4,7E0,1E0,9.1E0,4.21E1,4.5E-1,-7.3E-2,-1.76E-1,1.91E2,7.22E-1,3.240492E-1,-1.07392825E-1,1.8176487E-1,3.9E0,3.6435717E-1,7.3E-2,5.41E1,2.06E-1,4.6284866E-2,-2.2302254E-1,-7.85E-1,3.19E2,1.8E1,-2.4909846E-1,2.8E0,2.75E0,3.2889E4,5.2E1,-8.29563E-2,1.6154788E-1,3.9E-2,-2.9040622E-2,1E0,1.37E0,-1.591804E-1,6.707487E-2,2.4E0,5E-2,1.1E2,-1.951024E-2,1.993013E-1,-5.6728285E-2,1.794897E-1,-1.2356448E-1,-4.85699E-2,1.9025493E-1,-3.9422594E-2,-2.4685587E-1,5.0166328E-2,-2.1219754E-1,1.650909E-1,-4.7556564E-2,6.673935E-2,-1.113293E-1,-2.8726628E-1,-2.3175899E-2,-2.0047127E-1,3.092357E-1,-2.79692E-1,-1.296549E-2,-6.464039E-2,3.1517205E-1,-7.3174365E-2,1.400465E-1,4.1645092E-1,6.534769E-2],"split_indices":[3,3,4,4,23,22,23,12,12,12,17,12,6,16,3,17,23,14,14,7,14,0,0,0,4,0,14,22,8,0,0,14,7,6,0,3,19,12,13,0,0,15,0,16,23,0,0,19,10,13,0,0,0,0,0,0,0,0,0,0,0,0,0,0,0,0,0,0,0,0,0,0,0,0,0,0,0],"split_type":[0,0,0,0,0,0,0,0,0,0,0,0,0,0,0,0,0,0,0,0,0,0,0,0,0,0,0,0,0,0,0,0,0,0,0,0,0,0,0,0,0,0,0,0,0,0,0,0,0,0,0,0,0,0,0,0,0,0,0,0,0,0,0,0,0,0,0,0,0,0,0,0,0,0,0,0,0],"sum_hessian":[1.6340529E2,1.234594E2,3.9945885E1,1.0588446E2,1.7574938E1,1.6839304E1,2.3106583E1,4.3425114E1,6.245935E1,1.3792867E1,3.7820706E0,1.2140786E1,4.6985173E0,2.0055895E1,3.0506887E0,3.682541E1,6.599704E0,2.012871E1,4.2330643E1,2.3985076E0,1.1394359E1,1.9003356E0,1.8817351E0,1.1109468E0,1.1029839E1,2.251419E0,2.4470983E0,1.4265461E1,5.7904334E0,1.0027516E0,2.0479372E0,1.5161438E1,2.166397E1,3.009396E0,3.590308E0,8.367995E0,1.1760714E1,1.6700169E1,2.5630472E1,1.3404547E0,1.0580529E0,9.87046E0,1.5238994E0,2.8433754E0,8.186463E0,1.0411227E0,1.4059755E0,3.5415606E0,1.07239E1,4.2587056E0,1.5317277E0,1.4631196E0,1.3698318E1,1.927169E1,2.3922806E0,1.3908722E0,1.6185237E0,2.6241481E0,5.7438474E0,8.396405E0,3.3643088E0,1.0145334E1,6.5548344E0,8.095504E0,1.753497E1,8.868819E0,1.0016403E0,1.7278346E0,1.115541E0,7.1607547E0,1.0257086E0,1.0250617E0,